<?xml version="1.0"?>
<PMML version="4.4.1" xmlns="http://www.dmg.org/PMML-4_4" xmlns:xsi="http://www.w3.org/2001/XMLSchema-instance" xsi:schemaLocation="http://www.dmg.org/PMML-4_4 http://www.dmg.org/pmml/v4-4/pmml-4-4.xsd">
	<Header copyright="Copyright (c) 2023 pkbeam" description="Support Vector Machine Model">
		<Extension name="user" value="pkbeam" extender="SoftwareAG PMML Generator"/>
		<Application name="SoftwareAG PMML Generator" version="2.5.2"/>
		<Timestamp>2023-01-14 22:55:24</Timestamp>
	</Header>
	<DataDictionary numberOfFields="4">
		<DataField name="Difficulty" optype="continuous" dataType="double"/>
		<DataField name="BPM" optype="continuous" dataType="double"/>
		<DataField name="NoteDensity" optype="continuous" dataType="double"/>
		<DataField name="HighNoteDensity2s" optype="continuous" dataType="double"/>
	</DataDictionary>
	<SupportVectorMachineModel modelName="LIBSVM_Model" functionName="regression" algorithmName="LIBSVM">
		<MiningSchema>
			<MiningField name="Difficulty" usageType="predicted" invalidValueTreatment="returnInvalid"/>
			<MiningField name="BPM" usageType="active" invalidValueTreatment="returnInvalid"/>
			<MiningField name="NoteDensity" usageType="active" invalidValueTreatment="returnInvalid"/>
			<MiningField name="HighNoteDensity2s" usageType="active" invalidValueTreatment="returnInvalid"/>
		</MiningSchema>
		<Output>
			<OutputField name="predictedValue" feature="predictedValue" dataType="double" optype="continuous"/>
			<OutputField name="svm_predict_function" feature="transformedValue" dataType="double" optype="continuous">
				<Apply function="+">
					<Apply function="*">
						<FieldRef field="predictedValue"/>
						<Constant>-2.04228325510486</Constant>
					</Apply>
					<Constant>6.80067377877597</Constant>
				</Apply>
			</OutputField>
		</Output>
		<LocalTransformations>
			<DerivedField name="algorithm_derived_nc_BPM" dataType="double" optype="continuous">
				<NormContinuous field="BPM">
					<LinearNorm orig="0" norm="-3.68332843766534"/>
					<LinearNorm orig="138.151837751797" norm="0"/>
				</NormContinuous>
			</DerivedField>
			<DerivedField name="algorithm_derived_nc_NoteDensity" dataType="double" optype="continuous">
				<NormContinuous field="NoteDensity">
					<LinearNorm orig="0" norm="-3.53267567860691"/>
					<LinearNorm orig="4.47792608609398" norm="0"/>
				</NormContinuous>
			</DerivedField>
			<DerivedField name="algorithm_derived_nc_HighNoteDensity2s" dataType="double" optype="continuous">
				<NormContinuous field="HighNoteDensity2s">
					<LinearNorm orig="0" norm="-3.60454586748439"/>
					<LinearNorm orig="6.78131795212087" norm="0"/>
				</NormContinuous>
			</DerivedField>
		</LocalTransformations>
		<RadialBasisKernelType gamma="0.333333333333333" description="Radial basis kernel type"/>
		<VectorDictionary numberOfVectors="639">
			<VectorFields numberOfFields="3">
				<FieldRef field="algorithm_derived_nc_BPM"/>
				<FieldRef field="algorithm_derived_nc_NoteDensity"/>
				<FieldRef field="algorithm_derived_nc_HighNoteDensity2s"/>
			</VectorFields>
			<VectorInstance id="1">
				<REAL-SparseArray n="3">
					<Indices> 1 2 3</Indices>
					<REAL-Entries> 0.0492746870183325 -0.0689455416076772 0.454491502891958</REAL-Entries>
				</REAL-SparseArray>
			</VectorInstance>
			<VectorInstance id="2">
				<REAL-SparseArray n="3">
					<Indices> 1 2 3</Indices>
					<REAL-Entries> 0.902441115517458 0.365656513667391 -0.125370978590377</REAL-Entries>
				</REAL-SparseArray>
			</VectorInstance>
			<VectorInstance id="3">
				<REAL-SparseArray n="3">
					<Indices> 1 2 3</Indices>
					<REAL-Entries> 2.18219075826615 -0.202108165707361 -0.318658472417822</REAL-Entries>
				</REAL-SparseArray>
			</VectorInstance>
			<VectorInstance id="4">
				<REAL-SparseArray n="3">
					<Indices> 1 2 3</Indices>
					<REAL-Entries> 0.315889195924309 -0.39011597388755 -0.705233460072712</REAL-Entries>
				</REAL-SparseArray>
			</VectorInstance>
			<VectorInstance id="5">
				<REAL-SparseArray n="3">
					<Indices> 1 2 3</Indices>
					<REAL-Entries> -1.28379785751155 -0.494055329569261 -0.511945966245267</REAL-Entries>
				</REAL-SparseArray>
			</VectorInstance>
			<VectorInstance id="6">
				<REAL-SparseArray n="3">
					<Indices> 1 2 3</Indices>
					<REAL-Entries> -1.28379785751155 0.11366874023827 -0.511945966245267</REAL-Entries>
				</REAL-SparseArray>
			</VectorInstance>
			<VectorInstance id="7">
				<REAL-SparseArray n="3">
					<Indices> 1 2 3</Indices>
					<REAL-Entries> 0.315889195924309 0.458275154685214 1.80750395968407</REAL-Entries>
				</REAL-SparseArray>
			</VectorInstance>
			<VectorInstance id="8">
				<REAL-SparseArray n="3">
					<Indices> 1 2 3</Indices>
					<REAL-Entries> -0.0307096656534605 -1.10020661451704 -0.705233460072712</REAL-Entries>
				</REAL-SparseArray>
			</VectorInstance>
			<VectorInstance id="9">
				<REAL-SparseArray n="3">
					<Indices> 1 2 3</Indices>
					<REAL-Entries> -0.0307096656534605 0.0925484864073365 0.841066490546848</REAL-Entries>
				</REAL-SparseArray>
			</VectorInstance>
			<VectorInstance id="10">
				<REAL-SparseArray n="3">
					<Indices> 1 2 3</Indices>
					<REAL-Entries> -1.07050625038677 0.786600470331049 0.454491502891958</REAL-Entries>
				</REAL-SparseArray>
			</VectorInstance>
			<VectorInstance id="11">
				<REAL-SparseArray n="3">
					<Indices> 1 2 3</Indices>
					<REAL-Entries> 0.0492746870183325 -1.31584170992825 -1.28509594155505</REAL-Entries>
				</REAL-SparseArray>
			</VectorInstance>
			<VectorInstance id="12">
				<REAL-SparseArray n="3">
					<Indices> 1 2 3</Indices>
					<REAL-Entries> -0.164016920106449 -0.288564373127114 -0.318658472417822</REAL-Entries>
				</REAL-SparseArray>
			</VectorInstance>
			<VectorInstance id="13">
				<REAL-SparseArray n="3">
					<Indices> 1 2 3</Indices>
					<REAL-Entries> -1.28379785751155 -0.332861238407392 -0.125370978590377</REAL-Entries>
				</REAL-SparseArray>
			</VectorInstance>
			<VectorInstance id="14">
				<REAL-SparseArray n="3">
					<Indices> 1 2 3</Indices>
					<REAL-Entries> -0.670584487027805 0.284056695547089 -0.125370978590377</REAL-Entries>
				</REAL-SparseArray>
			</VectorInstance>
			<VectorInstance id="15">
				<REAL-SparseArray n="3">
					<Indices> 1 2 3</Indices>
					<REAL-Entries> -0.750568839699598 -0.261920384449646 -0.511945966245267</REAL-Entries>
				</REAL-SparseArray>
			</VectorInstance>
			<VectorInstance id="16">
				<REAL-SparseArray n="3">
					<Indices> 1 2 3</Indices>
					<REAL-Entries> 0.0492746870183325 0.712271777279078 0.454491502891958</REAL-Entries>
				</REAL-SparseArray>
			</VectorInstance>
			<VectorInstance id="17">
				<REAL-SparseArray n="3">
					<Indices> 1 2 3</Indices>
					<REAL-Entries> -0.350647076340633 0.152405382810681 -0.318658472417822</REAL-Entries>
				</REAL-SparseArray>
			</VectorInstance>
			<VectorInstance id="18">
				<REAL-SparseArray n="3">
					<Indices> 1 2 3</Indices>
					<REAL-Entries> -0.190678370997047 0.0977330847724191 -0.125370978590377</REAL-Entries>
				</REAL-SparseArray>
			</VectorInstance>
			<VectorInstance id="19">
				<REAL-SparseArray n="3">
					<Indices> 1 2 3</Indices>
					<REAL-Entries> -1.07050625038677 -0.824594215363407 -0.705233460072712</REAL-Entries>
				</REAL-SparseArray>
			</VectorInstance>
			<VectorInstance id="20">
				<REAL-SparseArray n="3">
					<Indices> 1 2 3</Indices>
					<REAL-Entries> -1.07050625038677 0.381526100198828 -0.125370978590377</REAL-Entries>
				</REAL-SparseArray>
			</VectorInstance>
			<VectorInstance id="21">
				<REAL-SparseArray n="3">
					<Indices> 1 2 3</Indices>
					<REAL-Entries> 0.315889195924309 -0.00749860535689583 0.454491502891958</REAL-Entries>
				</REAL-SparseArray>
			</VectorInstance>
			<VectorInstance id="22">
				<REAL-SparseArray n="3">
					<Indices> 1 2 3</Indices>
					<REAL-Entries> -1.00012003630845 -0.468773727358576 -0.705233460072712</REAL-Entries>
				</REAL-SparseArray>
			</VectorInstance>
			<VectorInstance id="23">
				<REAL-SparseArray n="3">
					<Indices> 1 2 3</Indices>
					<REAL-Entries> -0.0840325674346558 -0.318841939521402 -0.47328846747978</REAL-Entries>
				</REAL-SparseArray>
			</VectorInstance>
			<VectorInstance id="24">
				<REAL-SparseArray n="3">
					<Indices> 1 2 3</Indices>
					<REAL-Entries> -1.01718334860557 -1.98795897943058 -0.898520953900157</REAL-Entries>
				</REAL-SparseArray>
			</VectorInstance>
			<VectorInstance id="25">
				<REAL-SparseArray n="3">
					<Indices> 1 2 3</Indices>
					<REAL-Entries> -1.01718334860557 -0.920449403392652 0.261204009064512</REAL-Entries>
				</REAL-SparseArray>
			</VectorInstance>
			<VectorInstance id="26">
				<REAL-SparseArray n="3">
					<Indices> 1 2 3</Indices>
					<REAL-Entries> -0.883876094152586 -0.2109540548142 0.222546510299015</REAL-Entries>
				</REAL-SparseArray>
			</VectorInstance>
			<VectorInstance id="27">
				<REAL-SparseArray n="3">
					<Indices> 1 2 3</Indices>
					<REAL-Entries> 0.369212097705505 -1.28524743850911 -0.898520953900157</REAL-Entries>
				</REAL-SparseArray>
			</VectorInstance>
			<VectorInstance id="28">
				<REAL-SparseArray n="3">
					<Indices> 1 2 3</Indices>
					<REAL-Entries> 0.369212097705505 -0.149988310377516 0.647778996719403</REAL-Entries>
				</REAL-SparseArray>
			</VectorInstance>
			<VectorInstance id="29">
				<REAL-SparseArray n="3">
					<Indices> 1 2 3</Indices>
					<REAL-Entries> -0.297324174559437 -0.954521440300199 -0.318658472417822</REAL-Entries>
				</REAL-SparseArray>
			</VectorInstance>
			<VectorInstance id="30">
				<REAL-SparseArray n="3">
					<Indices> 1 2 3</Indices>
					<REAL-Entries> 1.11573272264224 0.997915350416077 2.7739414288213</REAL-Entries>
				</REAL-SparseArray>
			</VectorInstance>
			<VectorInstance id="31">
				<REAL-SparseArray n="3">
					<Indices> 1 2 3</Indices>
					<REAL-Entries> -0.750568839699598 -0.856572988066068 -0.898520953900157</REAL-Entries>
				</REAL-SparseArray>
			</VectorInstance>
			<VectorInstance id="32">
				<REAL-SparseArray n="3">
					<Indices> 1 2 3</Indices>
					<REAL-Entries> -0.883876094152586 0.139924048449912 0.261204009064512</REAL-Entries>
				</REAL-SparseArray>
			</VectorInstance>
			<VectorInstance id="33">
				<REAL-SparseArray n="3">
					<Indices> 1 2 3</Indices>
					<REAL-Entries> -1.15049060305856 1.19702092631841 0.647778996719403</REAL-Entries>
				</REAL-SparseArray>
			</VectorInstance>
			<VectorInstance id="34">
				<REAL-SparseArray n="3">
					<Indices> 1 2 3</Indices>
					<REAL-Entries> 1.32902432976702 -1.2309179887082 -1.47838343538249</REAL-Entries>
				</REAL-SparseArray>
			</VectorInstance>
			<VectorInstance id="35">
				<REAL-SparseArray n="3">
					<Indices> 1 2 3</Indices>
					<REAL-Entries> 1.32902432976702 -0.850385467394297 -0.898520953900157</REAL-Entries>
				</REAL-SparseArray>
			</VectorInstance>
			<VectorInstance id="36">
				<REAL-SparseArray n="3">
					<Indices> 1 2 3</Indices>
					<REAL-Entries> -0.37730852723123 0.190974261664718 0.377176505360963</REAL-Entries>
				</REAL-SparseArray>
			</VectorInstance>
			<VectorInstance id="37">
				<REAL-SparseArray n="3">
					<Indices> 1 2 3</Indices>
					<REAL-Entries> 0.982425468189251 0.215866542031836 0.647778996719403</REAL-Entries>
				</REAL-SparseArray>
			</VectorInstance>
			<VectorInstance id="38">
				<REAL-SparseArray n="3">
					<Indices> 1 2 3</Indices>
					<REAL-Entries> -0.596518979708296 -0.3023013994685 -1.0918084477276</REAL-Entries>
				</REAL-SparseArray>
			</VectorInstance>
			<VectorInstance id="39">
				<REAL-SparseArray n="3">
					<Indices> 1 2 3</Indices>
					<REAL-Entries> 0.582503704830286 -0.676402882790958 -0.898520953900157</REAL-Entries>
				</REAL-SparseArray>
			</VectorInstance>
			<VectorInstance id="40">
				<REAL-SparseArray n="3">
					<Indices> 1 2 3</Indices>
					<REAL-Entries> -0.403969978121828 0.428512397023533 0.841066490546848</REAL-Entries>
				</REAL-SparseArray>
			</VectorInstance>
			<VectorInstance id="41">
				<REAL-SparseArray n="3">
					<Indices> 1 2 3</Indices>
					<REAL-Entries> -1.01718334860557 0.872743356384497 0.261204009064512</REAL-Entries>
				</REAL-SparseArray>
			</VectorInstance>
			<VectorInstance id="42">
				<REAL-SparseArray n="3">
					<Indices> 1 2 3</Indices>
					<REAL-Entries> 0.662488057502079 -0.408596491429866 -0.898520953900157</REAL-Entries>
				</REAL-SparseArray>
			</VectorInstance>
			<VectorInstance id="43">
				<REAL-SparseArray n="3">
					<Indices> 1 2 3</Indices>
					<REAL-Entries> -0.217339821887644 -0.763760177989507 -0.898520953900157</REAL-Entries>
				</REAL-SparseArray>
			</VectorInstance>
			<VectorInstance id="44">
				<REAL-SparseArray n="3">
					<Indices> 1 2 3</Indices>
					<REAL-Entries> -1.12382915216797 -1.08087061241776 -0.898520953900157</REAL-Entries>
				</REAL-SparseArray>
			</VectorInstance>
			<VectorInstance id="45">
				<REAL-SparseArray n="3">
					<Indices> 1 2 3</Indices>
					<REAL-Entries> -0.750568839699598 -0.117576769167582 -0.511945966245267</REAL-Entries>
				</REAL-SparseArray>
			</VectorInstance>
			<VectorInstance id="46">
				<REAL-SparseArray n="3">
					<Indices> 1 2 3</Indices>
					<REAL-Entries> -0.0840325674346558 -0.660915299878171 -0.511945966245267</REAL-Entries>
				</REAL-SparseArray>
			</VectorInstance>
			<VectorInstance id="47">
				<REAL-SparseArray n="3">
					<Indices> 1 2 3</Indices>
					<REAL-Entries> 0.0975318480388815 -0.593990079557797 -0.898520953900157</REAL-Entries>
				</REAL-SparseArray>
			</VectorInstance>
			<VectorInstance id="48">
				<REAL-SparseArray n="3">
					<Indices> 1 2 3</Indices>
					<REAL-Entries> 1.14239417353284 -0.361571334324409 -0.705233460072712</REAL-Entries>
				</REAL-SparseArray>
			</VectorInstance>
			<VectorInstance id="49">
				<REAL-SparseArray n="3">
					<Indices> 1 2 3</Indices>
					<REAL-Entries> -0.0840325674346558 -0.590768439686116 -0.511945966245267</REAL-Entries>
				</REAL-SparseArray>
			</VectorInstance>
			<VectorInstance id="50">
				<REAL-SparseArray n="3">
					<Indices> 1 2 3</Indices>
					<REAL-Entries> 0.315889195924309 1.13217686263242 0.841066490546848</REAL-Entries>
				</REAL-SparseArray>
			</VectorInstance>
			<VectorInstance id="51">
				<REAL-SparseArray n="3">
					<Indices> 1 2 3</Indices>
					<REAL-Entries> -0.937198995933781 -0.77149457882922 -0.511945966245267</REAL-Entries>
				</REAL-SparseArray>
			</VectorInstance>
			<VectorInstance id="52">
				<REAL-SparseArray n="3">
					<Indices> 1 2 3</Indices>
					<REAL-Entries> -0.350647076340633 0.150558235472389 -0.125370978590377</REAL-Entries>
				</REAL-SparseArray>
			</VectorInstance>
			<VectorInstance id="53">
				<REAL-SparseArray n="3">
					<Indices> 1 2 3</Indices>
					<REAL-Entries> 0.182581941471321 0.559247332680594 0.647778996719403</REAL-Entries>
				</REAL-SparseArray>
			</VectorInstance>
			<VectorInstance id="54">
				<REAL-SparseArray n="3">
					<Indices> 1 2 3</Indices>
					<REAL-Entries> -0.297324174559437 -1.68159127522755 -1.28509594155505</REAL-Entries>
				</REAL-SparseArray>
			</VectorInstance>
			<VectorInstance id="55">
				<REAL-SparseArray n="3">
					<Indices> 1 2 3</Indices>
					<REAL-Entries> 0.315889195924309 -0.476663442382942 -0.511945966245267</REAL-Entries>
				</REAL-SparseArray>
			</VectorInstance>
			<VectorInstance id="56">
				<REAL-SparseArray n="3">
					<Indices> 1 2 3</Indices>
					<REAL-Entries> -0.0840325674346558 -0.589337875996236 -0.705233460072712</REAL-Entries>
				</REAL-SparseArray>
			</VectorInstance>
			<VectorInstance id="57">
				<REAL-SparseArray n="3">
					<Indices> 1 2 3</Indices>
					<REAL-Entries> -1.12382915216797 -0.668524543553517 -0.125370978590377</REAL-Entries>
				</REAL-SparseArray>
			</VectorInstance>
			<VectorInstance id="58">
				<REAL-SparseArray n="3">
					<Indices> 1 2 3</Indices>
					<REAL-Entries> -1.23047495573036 -1.07578800615166 -0.898520953900157</REAL-Entries>
				</REAL-SparseArray>
			</VectorInstance>
			<VectorInstance id="59">
				<REAL-SparseArray n="3">
					<Indices> 1 2 3</Indices>
					<REAL-Entries> -1.60373526819872 -1.78383570132514 -1.86495842303738</REAL-Entries>
				</REAL-SparseArray>
			</VectorInstance>
			<VectorInstance id="60">
				<REAL-SparseArray n="3">
					<Indices> 1 2 3</Indices>
					<REAL-Entries> -0.963860446824379 -0.459143775686948 -0.898520953900157</REAL-Entries>
				</REAL-SparseArray>
			</VectorInstance>
			<VectorInstance id="61">
				<REAL-SparseArray n="3">
					<Indices> 1 2 3</Indices>
					<REAL-Entries> 0.849118213736263 -0.939468001850556 -0.898520953900157</REAL-Entries>
				</REAL-SparseArray>
			</VectorInstance>
			<VectorInstance id="62">
				<REAL-SparseArray n="3">
					<Indices> 1 2 3</Indices>
					<REAL-Entries> 1.11573272264224 0.180422294235194 -0.318658472417822</REAL-Entries>
				</REAL-SparseArray>
			</VectorInstance>
			<VectorInstance id="63">
				<REAL-SparseArray n="3">
					<Indices> 1 2 3</Indices>
					<REAL-Entries> -0.483954330793621 -0.366133561547834 0.261204009064512</REAL-Entries>
				</REAL-SparseArray>
			</VectorInstance>
			<VectorInstance id="64">
				<REAL-SparseArray n="3">
					<Indices> 1 2 3</Indices>
					<REAL-Entries> -0.27066272366884 -0.674367605470206 -0.705233460072712</REAL-Entries>
				</REAL-SparseArray>
			</VectorInstance>
			<VectorInstance id="65">
				<REAL-SparseArray n="3">
					<Indices> 1 2 3</Indices>
					<REAL-Entries> 0.0492746870183325 -0.425505528296374 -0.898520953900157</REAL-Entries>
				</REAL-SparseArray>
			</VectorInstance>
			<VectorInstance id="66">
				<REAL-SparseArray n="3">
					<Indices> 1 2 3</Indices>
					<REAL-Entries> 2.98203428498408 -0.627683063215799 -0.705233460072712</REAL-Entries>
				</REAL-SparseArray>
			</VectorInstance>
			<VectorInstance id="67">
				<REAL-SparseArray n="3">
					<Indices> 1 2 3</Indices>
					<REAL-Entries> -0.372536127521813 -1.4977916481585 -1.67167092920994</REAL-Entries>
				</REAL-SparseArray>
			</VectorInstance>
			<VectorInstance id="68">
				<REAL-SparseArray n="3">
					<Indices> 1 2 3</Indices>
					<REAL-Entries> -0.372536127521813 0.042459033350145 -0.318658472417822</REAL-Entries>
				</REAL-SparseArray>
			</VectorInstance>
			<VectorInstance id="69">
				<REAL-SparseArray n="3">
					<Indices> 1 2 3</Indices>
					<REAL-Entries> -0.483954330793621 0.773902279363383 0.493149001657456</REAL-Entries>
				</REAL-SparseArray>
			</VectorInstance>
			<VectorInstance id="70">
				<REAL-SparseArray n="3">
					<Indices> 1 2 3</Indices>
					<REAL-Entries> 1.38234723154822 1.16442238711103 0.841066490546848</REAL-Entries>
				</REAL-SparseArray>
			</VectorInstance>
			<VectorInstance id="71">
				<REAL-SparseArray n="3">
					<Indices> 1 2 3</Indices>
					<REAL-Entries> -1.07050625038677 -0.0965391988835622 -0.125370978590377</REAL-Entries>
				</REAL-SparseArray>
			</VectorInstance>
			<VectorInstance id="72">
				<REAL-SparseArray n="3">
					<Indices> 1 2 3</Indices>
					<REAL-Entries> 1.38735967869823 -0.523911471098394 -0.318658472417822</REAL-Entries>
				</REAL-SparseArray>
			</VectorInstance>
			<VectorInstance id="73">
				<REAL-SparseArray n="3">
					<Indices> 1 2 3</Indices>
					<REAL-Entries> -1.01718334860557 -0.82247848640529 -0.125370978590377</REAL-Entries>
				</REAL-SparseArray>
			</VectorInstance>
			<VectorInstance id="74">
				<REAL-SparseArray n="3">
					<Indices> 1 2 3</Indices>
					<REAL-Entries> -0.37730852723123 -0.84022527720031 -0.511945966245267</REAL-Entries>
				</REAL-SparseArray>
			</VectorInstance>
			<VectorInstance id="75">
				<REAL-SparseArray n="3">
					<Indices> 1 2 3</Indices>
					<REAL-Entries> -0.37730852723123 -0.670808009339257 -0.705233460072712</REAL-Entries>
				</REAL-SparseArray>
			</VectorInstance>
			<VectorInstance id="76">
				<REAL-SparseArray n="3">
					<Indices> 1 2 3</Indices>
					<REAL-Entries> -0.430631429012426 0.112846833311562 0.261204009064512</REAL-Entries>
				</REAL-SparseArray>
			</VectorInstance>
			<VectorInstance id="77">
				<REAL-SparseArray n="3">
					<Indices> 1 2 3</Indices>
					<REAL-Entries> 0.182581941471321 -0.104449667384667 -0.241343474886848</REAL-Entries>
				</REAL-SparseArray>
			</VectorInstance>
			<VectorInstance id="78">
				<REAL-SparseArray n="3">
					<Indices> 1 2 3</Indices>
					<REAL-Entries> 0.342550646814907 -0.675072381694126 -1.0918084477276</REAL-Entries>
				</REAL-SparseArray>
			</VectorInstance>
			<VectorInstance id="79">
				<REAL-SparseArray n="3">
					<Indices> 1 2 3</Indices>
					<REAL-Entries> 0.342550646814907 0.53020508249455 0.261204009064512</REAL-Entries>
				</REAL-SparseArray>
			</VectorInstance>
			<VectorInstance id="80">
				<REAL-SparseArray n="3">
					<Indices> 1 2 3</Indices>
					<REAL-Entries> -0.0573711165440582 0.945012654104988 0.454491502891958</REAL-Entries>
				</REAL-SparseArray>
			</VectorInstance>
			<VectorInstance id="81">
				<REAL-SparseArray n="3">
					<Indices> 1 2 3</Indices>
					<REAL-Entries> -1.07050625038677 -1.50857733330585 -1.47838343538249</REAL-Entries>
				</REAL-SparseArray>
			</VectorInstance>
			<VectorInstance id="82">
				<REAL-SparseArray n="3">
					<Indices> 1 2 3</Indices>
					<REAL-Entries> -1.07050625038677 -0.757098431280849 -0.705233460072712</REAL-Entries>
				</REAL-SparseArray>
			</VectorInstance>
			<VectorInstance id="83">
				<REAL-SparseArray n="3">
					<Indices> 1 2 3</Indices>
					<REAL-Entries> 1.43567013332941 0.890119214005173 0.647778996719403</REAL-Entries>
				</REAL-SparseArray>
			</VectorInstance>
			<VectorInstance id="84">
				<REAL-SparseArray n="3">
					<Indices> 1 2 3</Indices>
					<REAL-Entries> -0.190678370997047 0.000819136087795263 -0.318658472417822</REAL-Entries>
				</REAL-SparseArray>
			</VectorInstance>
			<VectorInstance id="85">
				<REAL-SparseArray n="3">
					<Indices> 1 2 3</Indices>
					<REAL-Entries> 0.182581941471321 -1.27608160113292 -0.898520953900157</REAL-Entries>
				</REAL-SparseArray>
			</VectorInstance>
			<VectorInstance id="86">
				<REAL-SparseArray n="3">
					<Indices> 1 2 3</Indices>
					<REAL-Entries> 1.38234723154822 -0.72598060465706 2.19407894733896</REAL-Entries>
				</REAL-SparseArray>
			</VectorInstance>
			<VectorInstance id="87">
				<REAL-SparseArray n="3">
					<Indices> 1 2 3</Indices>
					<REAL-Entries> 0.155920490580723 -0.925989235602496 -0.898520953900157</REAL-Entries>
				</REAL-SparseArray>
			</VectorInstance>
			<VectorInstance id="88">
				<REAL-SparseArray n="3">
					<Indices> 1 2 3</Indices>
					<REAL-Entries> -0.297324174559437 -0.737886352758896 -1.28509594155505</REAL-Entries>
				</REAL-SparseArray>
			</VectorInstance>
			<VectorInstance id="89">
				<REAL-SparseArray n="3">
					<Indices> 1 2 3</Indices>
					<REAL-Entries> -1.12382915216797 -1.62096286026646 -1.67167092920994</REAL-Entries>
				</REAL-SparseArray>
			</VectorInstance>
			<VectorInstance id="90">
				<REAL-SparseArray n="3">
					<Indices> 1 2 3</Indices>
					<REAL-Entries> -1.12382915216797 -1.0644711152016 -1.28509594155505</REAL-Entries>
				</REAL-SparseArray>
			</VectorInstance>
			<VectorInstance id="91">
				<REAL-SparseArray n="3">
					<Indices> 1 2 3</Indices>
					<REAL-Entries> 0.230572553074397 -0.946807664529391 -0.898520953900157</REAL-Entries>
				</REAL-SparseArray>
			</VectorInstance>
			<VectorInstance id="92">
				<REAL-SparseArray n="3">
					<Indices> 1 2 3</Indices>
					<REAL-Entries> 0.315889195924309 -0.646930017936994 -0.898520953900157</REAL-Entries>
				</REAL-SparseArray>
			</VectorInstance>
			<VectorInstance id="93">
				<REAL-SparseArray n="3">
					<Indices> 1 2 3</Indices>
					<REAL-Entries> 0.315889195924309 0.287304188754707 0.454491502891958</REAL-Entries>
				</REAL-SparseArray>
			</VectorInstance>
			<VectorInstance id="94">
				<REAL-SparseArray n="3">
					<Indices> 1 2 3</Indices>
					<REAL-Entries> -0.483954330793621 -1.15693292010431 -0.395973469948796</REAL-Entries>
				</REAL-SparseArray>
			</VectorInstance>
			<VectorInstance id="95">
				<REAL-SparseArray n="3">
					<Indices> 1 2 3</Indices>
					<REAL-Entries> -0.00404821476286283 -1.54059068424675 -1.67167092920994</REAL-Entries>
				</REAL-SparseArray>
			</VectorInstance>
			<VectorInstance id="96">
				<REAL-SparseArray n="3">
					<Indices> 1 2 3</Indices>
					<REAL-Entries> 0.315889195924309 0.390353052765549 -0.00939848229391671</REAL-Entries>
				</REAL-SparseArray>
			</VectorInstance>
			<VectorInstance id="97">
				<REAL-SparseArray n="3">
					<Indices> 1 2 3</Indices>
					<REAL-Entries> 0.315889195924309 -0.654824954894951 1.03435398437429</REAL-Entries>
				</REAL-SparseArray>
			</VectorInstance>
			<VectorInstance id="98">
				<REAL-SparseArray n="3">
					<Indices> 1 2 3</Indices>
					<REAL-Entries> -0.483954330793621 0.776932469281408 0.261204009064512</REAL-Entries>
				</REAL-SparseArray>
			</VectorInstance>
			<VectorInstance id="99">
				<REAL-SparseArray n="3">
					<Indices> 1 2 3</Indices>
					<REAL-Entries> -0.483954330793621 -2.14269335626984 -2.05824591686483</REAL-Entries>
				</REAL-SparseArray>
			</VectorInstance>
			<VectorInstance id="100">
				<REAL-SparseArray n="3">
					<Indices> 1 2 3</Indices>
					<REAL-Entries> -0.403969978121828 0.841000506127297 0.841066490546848</REAL-Entries>
				</REAL-SparseArray>
			</VectorInstance>
			<VectorInstance id="101">
				<REAL-SparseArray n="3">
					<Indices> 1 2 3</Indices>
					<REAL-Entries> -0.0573711165440582 1.58537071705245 1.22764147820174</REAL-Entries>
				</REAL-SparseArray>
			</VectorInstance>
			<VectorInstance id="102">
				<REAL-SparseArray n="3">
					<Indices> 1 2 3</Indices>
					<REAL-Entries> -0.27066272366884 -0.245555321728707 -0.125370978590377</REAL-Entries>
				</REAL-SparseArray>
			</VectorInstance>
			<VectorInstance id="103">
				<REAL-SparseArray n="3">
					<Indices> 1 2 3</Indices>
					<REAL-Entries> 0.369212097705505 0.0536614718379361 -0.395973469948796</REAL-Entries>
				</REAL-SparseArray>
			</VectorInstance>
			<VectorInstance id="104">
				<REAL-SparseArray n="3">
					<Indices> 1 2 3</Indices>
					<REAL-Entries> 0.369212097705505 0.420397494356672 0.261204009064512</REAL-Entries>
				</REAL-SparseArray>
			</VectorInstance>
			<VectorInstance id="105">
				<REAL-SparseArray n="3">
					<Indices> 1 2 3</Indices>
					<REAL-Entries> 0.369212097705505 0.940650921650694 0.647778996719403</REAL-Entries>
				</REAL-SparseArray>
			</VectorInstance>
			<VectorInstance id="106">
				<REAL-SparseArray n="3">
					<Indices> 1 2 3</Indices>
					<REAL-Entries> -0.483954330793621 -0.10741304850294 0.454491502891958</REAL-Entries>
				</REAL-SparseArray>
			</VectorInstance>
			<VectorInstance id="107">
				<REAL-SparseArray n="3">
					<Indices> 1 2 3</Indices>
					<REAL-Entries> 0.449196450377298 0.686124628349562 1.03435398437429</REAL-Entries>
				</REAL-SparseArray>
			</VectorInstance>
			<VectorInstance id="108">
				<REAL-SparseArray n="3">
					<Indices> 1 2 3</Indices>
					<REAL-Entries> 0.449196450377298 0.77046369767001 0.647778996719403</REAL-Entries>
				</REAL-SparseArray>
			</VectorInstance>
			<VectorInstance id="109">
				<REAL-SparseArray n="3">
					<Indices> 1 2 3</Indices>
					<REAL-Entries> -1.23047495573036 0.176684591283121 0.067916515237068</REAL-Entries>
				</REAL-SparseArray>
			</VectorInstance>
			<VectorInstance id="110">
				<REAL-SparseArray n="3">
					<Indices> 1 2 3</Indices>
					<REAL-Entries> 0.955764017298653 -0.985092439173401 -0.898520953900157</REAL-Entries>
				</REAL-SparseArray>
			</VectorInstance>
			<VectorInstance id="111">
				<REAL-SparseArray n="3">
					<Indices> 1 2 3</Indices>
					<REAL-Entries> 0.955764017298653 0.892074158303924 0.454491502891958</REAL-Entries>
				</REAL-SparseArray>
			</VectorInstance>
			<VectorInstance id="112">
				<REAL-SparseArray n="3">
					<Indices> 1 2 3</Indices>
					<REAL-Entries> -0.883876094152586 0.442565593446575 0.261204009064512</REAL-Entries>
				</REAL-SparseArray>
			</VectorInstance>
			<VectorInstance id="113">
				<REAL-SparseArray n="3">
					<Indices> 1 2 3</Indices>
					<REAL-Entries> -0.883876094152586 0.580701390544959 0.647778996719403</REAL-Entries>
				</REAL-SparseArray>
			</VectorInstance>
			<VectorInstance id="114">
				<REAL-SparseArray n="3">
					<Indices> 1 2 3</Indices>
					<REAL-Entries> -0.803891741480793 -1.42371133082763 -1.47838343538249</REAL-Entries>
				</REAL-SparseArray>
			</VectorInstance>
			<VectorInstance id="115">
				<REAL-SparseArray n="3">
					<Indices> 1 2 3</Indices>
					<REAL-Entries> -0.803891741480793 -1.09044289068473 -1.0918084477276</REAL-Entries>
				</REAL-SparseArray>
			</VectorInstance>
			<VectorInstance id="116">
				<REAL-SparseArray n="3">
					<Indices> 1 2 3</Indices>
					<REAL-Entries> -0.297324174559437 -0.384553553962413 -0.705233460072712</REAL-Entries>
				</REAL-SparseArray>
			</VectorInstance>
			<VectorInstance id="117">
				<REAL-SparseArray n="3">
					<Indices> 1 2 3</Indices>
					<REAL-Entries> -0.297324174559437 0.163925957013835 -0.125370978590377</REAL-Entries>
				</REAL-SparseArray>
			</VectorInstance>
			<VectorInstance id="118">
				<REAL-SparseArray n="3">
					<Indices> 1 2 3</Indices>
					<REAL-Entries> 1.24903997709523 1.27249662490232 1.03435398437429</REAL-Entries>
				</REAL-SparseArray>
			</VectorInstance>
			<VectorInstance id="119">
				<REAL-SparseArray n="3">
					<Indices> 1 2 3</Indices>
					<REAL-Entries> 0.0492746870183325 1.49462224047937 0.454491502891958</REAL-Entries>
				</REAL-SparseArray>
			</VectorInstance>
			<VectorInstance id="120">
				<REAL-SparseArray n="3">
					<Indices> 1 2 3</Indices>
					<REAL-Entries> 0.982425468189251 -0.298585108701549 -0.511945966245267</REAL-Entries>
				</REAL-SparseArray>
			</VectorInstance>
			<VectorInstance id="121">
				<REAL-SparseArray n="3">
					<Indices> 1 2 3</Indices>
					<REAL-Entries> 0.982425468189251 0.490759638212011 0.763751493015852</REAL-Entries>
				</REAL-SparseArray>
			</VectorInstance>
			<VectorInstance id="122">
				<REAL-SparseArray n="3">
					<Indices> 1 2 3</Indices>
					<REAL-Entries> -1.07050625038677 0.11291380350559 -0.125370978590377</REAL-Entries>
				</REAL-SparseArray>
			</VectorInstance>
			<VectorInstance id="123">
				<REAL-SparseArray n="3">
					<Indices> 1 2 3</Indices>
					<REAL-Entries> 0.0759361379089302 -0.0759298743050682 0.067916515237068</REAL-Entries>
				</REAL-SparseArray>
			</VectorInstance>
			<VectorInstance id="124">
				<REAL-SparseArray n="3">
					<Indices> 1 2 3</Indices>
					<REAL-Entries> -0.550021321481659 -0.250814714299712 0.067916515237068</REAL-Entries>
				</REAL-SparseArray>
			</VectorInstance>
			<VectorInstance id="125">
				<REAL-SparseArray n="3">
					<Indices> 1 2 3</Indices>
					<REAL-Entries> -0.857214643261988 -1.04057978013646 -0.705233460072712</REAL-Entries>
				</REAL-SparseArray>
			</VectorInstance>
			<VectorInstance id="126">
				<REAL-SparseArray n="3">
					<Indices> 1 2 3</Indices>
					<REAL-Entries> 1.38234723154822 1.41663544114352 1.22764147820174</REAL-Entries>
				</REAL-SparseArray>
			</VectorInstance>
			<VectorInstance id="127">
				<REAL-SparseArray n="3">
					<Indices> 1 2 3</Indices>
					<REAL-Entries> -1.63039671908932 -0.880660937544733 -0.898520953900157</REAL-Entries>
				</REAL-SparseArray>
			</VectorInstance>
			<VectorInstance id="128">
				<REAL-SparseArray n="3">
					<Indices> 1 2 3</Indices>
					<REAL-Entries> 1.48899303511061 0.999128278875758 1.22764147820174</REAL-Entries>
				</REAL-SparseArray>
			</VectorInstance>
			<VectorInstance id="129">
				<REAL-SparseArray n="3">
					<Indices> 1 2 3</Indices>
					<REAL-Entries> 1.11573272264224 0.0657466693811816 2.58065393499385</REAL-Entries>
				</REAL-SparseArray>
			</VectorInstance>
			<VectorInstance id="130">
				<REAL-SparseArray n="3">
					<Indices> 1 2 3</Indices>
					<REAL-Entries> 1.00908691907985 -1.30991049713832 -0.511945966245267</REAL-Entries>
				</REAL-SparseArray>
			</VectorInstance>
			<VectorInstance id="131">
				<REAL-SparseArray n="3">
					<Indices> 1 2 3</Indices>
					<REAL-Entries> -0.0840325674346558 -0.723541293622997 -0.125370978590377</REAL-Entries>
				</REAL-SparseArray>
			</VectorInstance>
			<VectorInstance id="132">
				<REAL-SparseArray n="3">
					<Indices> 1 2 3</Indices>
					<REAL-Entries> -0.857214643261988 -0.595971788481082 -0.705233460072712</REAL-Entries>
				</REAL-SparseArray>
			</VectorInstance>
			<VectorInstance id="133">
				<REAL-SparseArray n="3">
					<Indices> 1 2 3</Indices>
					<REAL-Entries> -0.00404821476286283 -1.19969913440972 -1.0918084477276</REAL-Entries>
				</REAL-SparseArray>
			</VectorInstance>
			<VectorInstance id="134">
				<REAL-SparseArray n="3">
					<Indices> 1 2 3</Indices>
					<REAL-Entries> 1.11573272264224 -0.902979393104349 -0.898520953900157</REAL-Entries>
				</REAL-SparseArray>
			</VectorInstance>
			<VectorInstance id="135">
				<REAL-SparseArray n="3">
					<Indices> 1 2 3</Indices>
					<REAL-Entries> 0.475857901267895 0.362173701731925 0.067916515237068</REAL-Entries>
				</REAL-SparseArray>
			</VectorInstance>
			<VectorInstance id="136">
				<REAL-SparseArray n="3">
					<Indices> 1 2 3</Indices>
					<REAL-Entries> -1.28379785751155 -0.0214755678232068 0.067916515237068</REAL-Entries>
				</REAL-SparseArray>
			</VectorInstance>
			<VectorInstance id="137">
				<REAL-SparseArray n="3">
					<Indices> 1 2 3</Indices>
					<REAL-Entries> 0.102597588799528 -0.377040136003835 -0.898520953900157</REAL-Entries>
				</REAL-SparseArray>
			</VectorInstance>
			<VectorInstance id="138">
				<REAL-SparseArray n="3">
					<Indices> 1 2 3</Indices>
					<REAL-Entries> 0.102597588799528 0.385216422429002 -0.318658472417822</REAL-Entries>
				</REAL-SparseArray>
			</VectorInstance>
			<VectorInstance id="139">
				<REAL-SparseArray n="3">
					<Indices> 1 2 3</Indices>
					<REAL-Entries> 1.43567013332941 -0.316354837107623 -0.705233460072712</REAL-Entries>
				</REAL-SparseArray>
			</VectorInstance>
			<VectorInstance id="140">
				<REAL-SparseArray n="3">
					<Indices> 1 2 3</Indices>
					<REAL-Entries> -1.04384479949617 -0.103337053227038 0.067916515237068</REAL-Entries>
				</REAL-SparseArray>
			</VectorInstance>
			<VectorInstance id="141">
				<REAL-SparseArray n="3">
					<Indices> 1 2 3</Indices>
					<REAL-Entries> 0.449196450377298 0.970416240687679 1.42092897202918</REAL-Entries>
				</REAL-SparseArray>
			</VectorInstance>
			<VectorInstance id="142">
				<REAL-SparseArray n="3">
					<Indices> 1 2 3</Indices>
					<REAL-Entries> -0.883876094152586 -1.22722349821 -1.67167092920994</REAL-Entries>
				</REAL-SparseArray>
			</VectorInstance>
			<VectorInstance id="143">
				<REAL-SparseArray n="3">
					<Indices> 1 2 3</Indices>
					<REAL-Entries> -0.617794814264421 0.640237111282684 0.067916515237068</REAL-Entries>
				</REAL-SparseArray>
			</VectorInstance>
			<VectorInstance id="144">
				<REAL-SparseArray n="3">
					<Indices> 1 2 3</Indices>
					<REAL-Entries> 1.11573272264224 -0.0475724404638586 -0.318658472417822</REAL-Entries>
				</REAL-SparseArray>
			</VectorInstance>
			<VectorInstance id="145">
				<REAL-SparseArray n="3">
					<Indices> 1 2 3</Indices>
					<REAL-Entries> -0.0840325674346558 1.00177359207048 0.261204009064512</REAL-Entries>
				</REAL-SparseArray>
			</VectorInstance>
			<VectorInstance id="146">
				<REAL-SparseArray n="3">
					<Indices> 1 2 3</Indices>
					<REAL-Entries> 0.742472410173872 0.169127554062082 0.067916515237068</REAL-Entries>
				</REAL-SparseArray>
			</VectorInstance>
			<VectorInstance id="147">
				<REAL-SparseArray n="3">
					<Indices> 1 2 3</Indices>
					<REAL-Entries> 4.84833584732591 -0.84307511478595 -0.705233460072712</REAL-Entries>
				</REAL-SparseArray>
			</VectorInstance>
			<VectorInstance id="148">
				<REAL-SparseArray n="3">
					<Indices> 1 2 3</Indices>
					<REAL-Entries> -0.27066272366884 -0.473248536692954 0.261204009064512</REAL-Entries>
				</REAL-SparseArray>
			</VectorInstance>
			<VectorInstance id="149">
				<REAL-SparseArray n="3">
					<Indices> 1 2 3</Indices>
					<REAL-Entries> -1.25713640662095 -0.292754998647984 -0.318658472417822</REAL-Entries>
				</REAL-SparseArray>
			</VectorInstance>
			<VectorInstance id="150">
				<REAL-SparseArray n="3">
					<Indices> 1 2 3</Indices>
					<REAL-Entries> -1.17715205394916 -0.246669599815784 -0.318658472417822</REAL-Entries>
				</REAL-SparseArray>
			</VectorInstance>
			<VectorInstance id="151">
				<REAL-SparseArray n="3">
					<Indices> 1 2 3</Indices>
					<REAL-Entries> -0.164016920106449 0.473342169308033 0.454491502891958</REAL-Entries>
				</REAL-SparseArray>
			</VectorInstance>
			<VectorInstance id="152">
				<REAL-SparseArray n="3">
					<Indices> 1 2 3</Indices>
					<REAL-Entries> -1.01718334860557 -3.5242606504933 -3.60454586748439</REAL-Entries>
				</REAL-SparseArray>
			</VectorInstance>
			<VectorInstance id="153">
				<REAL-SparseArray n="3">
					<Indices> 1 2 3</Indices>
					<REAL-Entries> 1.00908691907985 -0.0171231789557883 -0.705233460072712</REAL-Entries>
				</REAL-SparseArray>
			</VectorInstance>
			<VectorInstance id="154">
				<REAL-SparseArray n="3">
					<Indices> 1 2 3</Indices>
					<REAL-Entries> -0.350647076340633 0.545205462714669 0.647778996719403</REAL-Entries>
				</REAL-SparseArray>
			</VectorInstance>
			<VectorInstance id="155">
				<REAL-SparseArray n="3">
					<Indices> 1 2 3</Indices>
					<REAL-Entries> 0.582503704830286 0.873594492799128 0.647778996719403</REAL-Entries>
				</REAL-SparseArray>
			</VectorInstance>
			<VectorInstance id="156">
				<REAL-SparseArray n="3">
					<Indices> 1 2 3</Indices>
					<REAL-Entries> 1.00908691907985 0.15231431107785 -0.318658472417822</REAL-Entries>
				</REAL-SparseArray>
			</VectorInstance>
			<VectorInstance id="157">
				<REAL-SparseArray n="3">
					<Indices> 1 2 3</Indices>
					<REAL-Entries> 0.0492746870183325 -0.818294258486469 -0.511945966245267</REAL-Entries>
				</REAL-SparseArray>
			</VectorInstance>
			<VectorInstance id="158">
				<REAL-SparseArray n="3">
					<Indices> 1 2 3</Indices>
					<REAL-Entries> -0.937198995933781 -1.24229504284661 -1.0918084477276</REAL-Entries>
				</REAL-SparseArray>
			</VectorInstance>
			<VectorInstance id="159">
				<REAL-SparseArray n="3">
					<Indices> 1 2 3</Indices>
					<REAL-Entries> 0.129259039690126 0.947651789634354 1.03435398437429</REAL-Entries>
				</REAL-SparseArray>
			</VectorInstance>
			<VectorInstance id="160">
				<REAL-SparseArray n="3">
					<Indices> 1 2 3</Indices>
					<REAL-Entries> -0.217339821887644 -0.548401492313224 -0.705233460072712</REAL-Entries>
				</REAL-SparseArray>
			</VectorInstance>
			<VectorInstance id="161">
				<REAL-SparseArray n="3">
					<Indices> 1 2 3</Indices>
					<REAL-Entries> -0.217339821887644 -0.865569487787575 -1.0918084477276</REAL-Entries>
				</REAL-SparseArray>
			</VectorInstance>
			<VectorInstance id="162">
				<REAL-SparseArray n="3">
					<Indices> 1 2 3</Indices>
					<REAL-Entries> -2.19028718779187 -1.82421057592372 -1.67167092920994</REAL-Entries>
				</REAL-SparseArray>
			</VectorInstance>
			<VectorInstance id="163">
				<REAL-SparseArray n="3">
					<Indices> 1 2 3</Indices>
					<REAL-Entries> -0.37730852723123 -0.14925658451312 -0.125370978590377</REAL-Entries>
				</REAL-SparseArray>
			</VectorInstance>
			<VectorInstance id="164">
				<REAL-SparseArray n="3">
					<Indices> 1 2 3</Indices>
					<REAL-Entries> 1.06240982086104 -1.09551072829293 -1.28509594155505</REAL-Entries>
				</REAL-SparseArray>
			</VectorInstance>
			<VectorInstance id="165">
				<REAL-SparseArray n="3">
					<Indices> 1 2 3</Indices>
					<REAL-Entries> 0.0492746870183325 -0.751003438942187 0.067916515237068</REAL-Entries>
				</REAL-SparseArray>
			</VectorInstance>
			<VectorInstance id="166">
				<REAL-SparseArray n="3">
					<Indices> 1 2 3</Indices>
					<REAL-Entries> 0.582503704830286 -1.9026122857391 -2.05824591686483</REAL-Entries>
				</REAL-SparseArray>
			</VectorInstance>
			<VectorInstance id="167">
				<REAL-SparseArray n="3">
					<Indices> 1 2 3</Indices>
					<REAL-Entries> 0.582503704830286 -1.42717712948599 -1.67167092920994</REAL-Entries>
				</REAL-SparseArray>
			</VectorInstance>
			<VectorInstance id="168">
				<REAL-SparseArray n="3">
					<Indices> 1 2 3</Indices>
					<REAL-Entries> 0.582503704830286 0.296928382201126 -0.125370978590377</REAL-Entries>
				</REAL-SparseArray>
			</VectorInstance>
			<VectorInstance id="169">
				<REAL-SparseArray n="3">
					<Indices> 1 2 3</Indices>
					<REAL-Entries> -0.510615781684219 -0.543486230375241 0.14523151276802</REAL-Entries>
				</REAL-SparseArray>
			</VectorInstance>
			<VectorInstance id="170">
				<REAL-SparseArray n="3">
					<Indices> 1 2 3</Indices>
					<REAL-Entries> -0.697245937918402 -1.16953497113484 -0.511945966245267</REAL-Entries>
				</REAL-SparseArray>
			</VectorInstance>
			<VectorInstance id="171">
				<REAL-SparseArray n="3">
					<Indices> 1 2 3</Indices>
					<REAL-Entries> 1.00908691907985 0.0758520020549398 0.454491502891958</REAL-Entries>
				</REAL-SparseArray>
			</VectorInstance>
			<VectorInstance id="172">
				<REAL-SparseArray n="3">
					<Indices> 1 2 3</Indices>
					<REAL-Entries> -0.963860446824379 -0.538126243545092 -0.705233460072712</REAL-Entries>
				</REAL-SparseArray>
			</VectorInstance>
			<VectorInstance id="173">
				<REAL-SparseArray n="3">
					<Indices> 1 2 3</Indices>
					<REAL-Entries> 0.102597588799528 -0.571103284345736 -0.898520953900157</REAL-Entries>
				</REAL-SparseArray>
			</VectorInstance>
			<VectorInstance id="174">
				<REAL-SparseArray n="3">
					<Indices> 1 2 3</Indices>
					<REAL-Entries> -1.33712075929275 -0.319609987239986 -0.125370978590377</REAL-Entries>
				</REAL-SparseArray>
			</VectorInstance>
			<VectorInstance id="175">
				<REAL-SparseArray n="3">
					<Indices> 1 2 3</Indices>
					<REAL-Entries> 1.5156544860012 0.461485660694152 0.41583400412646</REAL-Entries>
				</REAL-SparseArray>
			</VectorInstance>
			<VectorInstance id="176">
				<REAL-SparseArray n="3">
					<Indices> 1 2 3</Indices>
					<REAL-Entries> -1.71038107176111 -0.484499485876532 0.067916515237068</REAL-Entries>
				</REAL-SparseArray>
			</VectorInstance>
			<VectorInstance id="177">
				<REAL-SparseArray n="3">
					<Indices> 1 2 3</Indices>
					<REAL-Entries> 0.982425468189251 1.20423776198915 1.03435398437429</REAL-Entries>
				</REAL-SparseArray>
			</VectorInstance>
			<VectorInstance id="178">
				<REAL-SparseArray n="3">
					<Indices> 1 2 3</Indices>
					<REAL-Entries> 1.19571707531403 0.874057793765566 0.261204009064512</REAL-Entries>
				</REAL-SparseArray>
			</VectorInstance>
			<VectorInstance id="179">
				<REAL-SparseArray n="3">
					<Indices> 1 2 3</Indices>
					<REAL-Entries> -0.483954330793621 -0.601010031506384 -0.705233460072712</REAL-Entries>
				</REAL-SparseArray>
			</VectorInstance>
			<VectorInstance id="180">
				<REAL-SparseArray n="3">
					<Indices> 1 2 3</Indices>
					<REAL-Entries> 8.31432446310361 0.306680898226831 3.97232389055142</REAL-Entries>
				</REAL-SparseArray>
			</VectorInstance>
			<VectorInstance id="181">
				<REAL-SparseArray n="3">
					<Indices> 1 2 3</Indices>
					<REAL-Entries> -0.217339821887644 0.387385370437082 0.067916515237068</REAL-Entries>
				</REAL-SparseArray>
			</VectorInstance>
			<VectorInstance id="182">
				<REAL-SparseArray n="3">
					<Indices> 1 2 3</Indices>
					<REAL-Entries> -0.483954330793621 0.535384787299327 0.261204009064512</REAL-Entries>
				</REAL-SparseArray>
			</VectorInstance>
			<VectorInstance id="183">
				<REAL-SparseArray n="3">
					<Indices> 1 2 3</Indices>
					<REAL-Entries> -0.857214643261988 -1.85959343809472 -1.86495842303738</REAL-Entries>
				</REAL-SparseArray>
			</VectorInstance>
			<VectorInstance id="184">
				<REAL-SparseArray n="3">
					<Indices> 1 2 3</Indices>
					<REAL-Entries> -0.857214643261988 -0.48718967852866 -0.318658472417822</REAL-Entries>
				</REAL-SparseArray>
			</VectorInstance>
			<VectorInstance id="185">
				<REAL-SparseArray n="3">
					<Indices> 1 2 3</Indices>
					<REAL-Entries> -0.750568839699598 0.700123919403945 0.261204009064512</REAL-Entries>
				</REAL-SparseArray>
			</VectorInstance>
			<VectorInstance id="186">
				<REAL-SparseArray n="3">
					<Indices> 1 2 3</Indices>
					<REAL-Entries> -0.323985625450035 -0.308558461902206 -0.125370978590377</REAL-Entries>
				</REAL-SparseArray>
			</VectorInstance>
			<VectorInstance id="187">
				<REAL-SparseArray n="3">
					<Indices> 1 2 3</Indices>
					<REAL-Entries> -0.483954330793621 0.533646631324569 0.454491502891958</REAL-Entries>
				</REAL-SparseArray>
			</VectorInstance>
			<VectorInstance id="188">
				<REAL-SparseArray n="3">
					<Indices> 1 2 3</Indices>
					<REAL-Entries> -1.12382915216797 -0.169996175063815 -0.511945966245267</REAL-Entries>
				</REAL-SparseArray>
			</VectorInstance>
			<VectorInstance id="189">
				<REAL-SparseArray n="3">
					<Indices> 1 2 3</Indices>
					<REAL-Entries> -1.63039671908932 0.0617113298126349 -0.511945966245267</REAL-Entries>
				</REAL-SparseArray>
			</VectorInstance>
			<VectorInstance id="190">
				<REAL-SparseArray n="3">
					<Indices> 1 2 3</Indices>
					<REAL-Entries> -0.937198995933781 -0.702465051334778 -0.511945966245267</REAL-Entries>
				</REAL-SparseArray>
			</VectorInstance>
			<VectorInstance id="191">
				<REAL-SparseArray n="3">
					<Indices> 1 2 3</Indices>
					<REAL-Entries> 0.715810959283274 -0.385838376364253 -0.898520953900157</REAL-Entries>
				</REAL-SparseArray>
			</VectorInstance>
			<VectorInstance id="192">
				<REAL-SparseArray n="3">
					<Indices> 1 2 3</Indices>
					<REAL-Entries> 0.715810959283274 0.904570209830314 0.067916515237068</REAL-Entries>
				</REAL-SparseArray>
			</VectorInstance>
			<VectorInstance id="193">
				<REAL-SparseArray n="3">
					<Indices> 1 2 3</Indices>
					<REAL-Entries> 0.689149508392677 0.282912489492481 0.647778996719403</REAL-Entries>
				</REAL-SparseArray>
			</VectorInstance>
			<VectorInstance id="194">
				<REAL-SparseArray n="3">
					<Indices> 1 2 3</Indices>
					<REAL-Entries> 1.46233158422001 -0.56931900419112 0.261204009064512</REAL-Entries>
				</REAL-SparseArray>
			</VectorInstance>
			<VectorInstance id="195">
				<REAL-SparseArray n="3">
					<Indices> 1 2 3</Indices>
					<REAL-Entries> 1.64896174045419 -0.399797123089915 -0.511945966245267</REAL-Entries>
				</REAL-SparseArray>
			</VectorInstance>
			<VectorInstance id="196">
				<REAL-SparseArray n="3">
					<Indices> 1 2 3</Indices>
					<REAL-Entries> 1.64896174045419 0.988379089160958 0.841066490546848</REAL-Entries>
				</REAL-SparseArray>
			</VectorInstance>
			<VectorInstance id="197">
				<REAL-SparseArray n="3">
					<Indices> 1 2 3</Indices>
					<REAL-Entries> -0.0840325674346558 2.89615829936289 3.16051641647619</REAL-Entries>
				</REAL-SparseArray>
			</VectorInstance>
			<VectorInstance id="198">
				<REAL-SparseArray n="3">
					<Indices> 1 2 3</Indices>
					<REAL-Entries> 1.38234723154822 0.331184886341741 0.067916515237068</REAL-Entries>
				</REAL-SparseArray>
			</VectorInstance>
			<VectorInstance id="199">
				<REAL-SparseArray n="3">
					<Indices> 1 2 3</Indices>
					<REAL-Entries> 0.102597588799528 0.711585225854868 0.261204009064512</REAL-Entries>
				</REAL-SparseArray>
			</VectorInstance>
			<VectorInstance id="200">
				<REAL-SparseArray n="3">
					<Indices> 1 2 3</Indices>
					<REAL-Entries> 1.43567013332941 1.00355041388501 0.841066490546848</REAL-Entries>
				</REAL-SparseArray>
			</VectorInstance>
			<VectorInstance id="201">
				<REAL-SparseArray n="3">
					<Indices> 1 2 3</Indices>
					<REAL-Entries> -1.25713640662095 -0.273412273905641 -0.511945966245267</REAL-Entries>
				</REAL-SparseArray>
			</VectorInstance>
			<VectorInstance id="202">
				<REAL-SparseArray n="3">
					<Indices> 1 2 3</Indices>
					<REAL-Entries> -0.217339821887644 -1.70989989714897 -1.67167092920994</REAL-Entries>
				</REAL-SparseArray>
			</VectorInstance>
			<VectorInstance id="203">
				<REAL-SparseArray n="3">
					<Indices> 1 2 3</Indices>
					<REAL-Entries> -0.217339821887644 -0.492314493724496 -0.125370978590377</REAL-Entries>
				</REAL-SparseArray>
			</VectorInstance>
			<VectorInstance id="204">
				<REAL-SparseArray n="3">
					<Indices> 1 2 3</Indices>
					<REAL-Entries> -0.617261585246609 -0.700363449795134 -0.898520953900157</REAL-Entries>
				</REAL-SparseArray>
			</VectorInstance>
			<VectorInstance id="205">
				<REAL-SparseArray n="3">
					<Indices> 1 2 3</Indices>
					<REAL-Entries> 1.38234723154822 1.12373575193337 1.03435398437429</REAL-Entries>
				</REAL-SparseArray>
			</VectorInstance>
			<VectorInstance id="206">
				<REAL-SparseArray n="3">
					<Indices> 1 2 3</Indices>
					<REAL-Entries> -2.03031848244829 -2.30960217132283 -2.44482090451972</REAL-Entries>
				</REAL-SparseArray>
			</VectorInstance>
			<VectorInstance id="207">
				<REAL-SparseArray n="3">
					<Indices> 1 2 3</Indices>
					<REAL-Entries> -0.244001272778242 0.0770796847279097 0.067916515237068</REAL-Entries>
				</REAL-SparseArray>
			</VectorInstance>
			<VectorInstance id="208">
				<REAL-SparseArray n="3">
					<Indices> 1 2 3</Indices>
					<REAL-Entries> 0.182581941471321 0.29960094668894 -0.125370978590377</REAL-Entries>
				</REAL-SparseArray>
			</VectorInstance>
			<VectorInstance id="209">
				<REAL-SparseArray n="3">
					<Indices> 1 2 3</Indices>
					<REAL-Entries> 0.529180803049091 -0.190378658595394 -0.511945966245267</REAL-Entries>
				</REAL-SparseArray>
			</VectorInstance>
			<VectorInstance id="210">
				<REAL-SparseArray n="3">
					<Indices> 1 2 3</Indices>
					<REAL-Entries> -0.910537545043184 0.418032100316081 0.067916515237068</REAL-Entries>
				</REAL-SparseArray>
			</VectorInstance>
			<VectorInstance id="211">
				<REAL-SparseArray n="3">
					<Indices> 1 2 3</Indices>
					<REAL-Entries> 0.715810959283274 0.178117968713372 0.067916515237068</REAL-Entries>
				</REAL-SparseArray>
			</VectorInstance>
			<VectorInstance id="212">
				<REAL-SparseArray n="3">
					<Indices> 1 2 3</Indices>
					<REAL-Entries> -0.350647076340633 0.860241425664278 0.454491502891958</REAL-Entries>
				</REAL-SparseArray>
			</VectorInstance>
			<VectorInstance id="213">
				<REAL-SparseArray n="3">
					<Indices> 1 2 3</Indices>
					<REAL-Entries> -0.430631429012426 1.10796482522114 0.841066490546848</REAL-Entries>
				</REAL-SparseArray>
			</VectorInstance>
			<VectorInstance id="214">
				<REAL-SparseArray n="3">
					<Indices> 1 2 3</Indices>
					<REAL-Entries> 0.0492746870183325 -0.141253884786864 0.261204009064512</REAL-Entries>
				</REAL-SparseArray>
			</VectorInstance>
			<VectorInstance id="215">
				<REAL-SparseArray n="3">
					<Indices> 1 2 3</Indices>
					<REAL-Entries> -0.0840325674346558 -0.403692463221767 -0.125370978590377</REAL-Entries>
				</REAL-SparseArray>
			</VectorInstance>
			<VectorInstance id="216">
				<REAL-SparseArray n="3">
					<Indices> 1 2 3</Indices>
					<REAL-Entries> -0.617261585246609 0.969007793185613 0.454491502891958</REAL-Entries>
				</REAL-SparseArray>
			</VectorInstance>
			<VectorInstance id="217">
				<REAL-SparseArray n="3">
					<Indices> 1 2 3</Indices>
					<REAL-Entries> 1.24903997709523 0.976409053140145 0.647778996719403</REAL-Entries>
				</REAL-SparseArray>
			</VectorInstance>
			<VectorInstance id="218">
				<REAL-SparseArray n="3">
					<Indices> 1 2 3</Indices>
					<REAL-Entries> 1.46233158422001 -0.134298940418983 -0.125370978590377</REAL-Entries>
				</REAL-SparseArray>
			</VectorInstance>
			<VectorInstance id="219">
				<REAL-SparseArray n="3">
					<Indices> 1 2 3</Indices>
					<REAL-Entries> -0.37730852723123 0.811490717924179 0.647778996719403</REAL-Entries>
				</REAL-SparseArray>
			</VectorInstance>
			<VectorInstance id="220">
				<REAL-SparseArray n="3">
					<Indices> 1 2 3</Indices>
					<REAL-Entries> -1.41710511196454 -0.620024072784272 -0.202685976121372</REAL-Entries>
				</REAL-SparseArray>
			</VectorInstance>
			<VectorInstance id="221">
				<REAL-SparseArray n="3">
					<Indices> 1 2 3</Indices>
					<REAL-Entries> -0.483954330793621 -0.540262664069512 -0.511945966245267</REAL-Entries>
				</REAL-SparseArray>
			</VectorInstance>
			<VectorInstance id="222">
				<REAL-SparseArray n="3">
					<Indices> 1 2 3</Indices>
					<REAL-Entries> 0.982425468189251 -0.423085401703297 -0.125370978590377</REAL-Entries>
				</REAL-SparseArray>
			</VectorInstance>
			<VectorInstance id="223">
				<REAL-SparseArray n="3">
					<Indices> 1 2 3</Indices>
					<REAL-Entries> 0.848584870808443 0.490079544345071 1.61421646585663</REAL-Entries>
				</REAL-SparseArray>
			</VectorInstance>
			<VectorInstance id="224">
				<REAL-SparseArray n="3">
					<Indices> 1 2 3</Indices>
					<REAL-Entries> 0.982425468189251 -0.433932603719035 -0.511945966245267</REAL-Entries>
				</REAL-SparseArray>
			</VectorInstance>
			<VectorInstance id="225">
				<REAL-SparseArray n="3">
					<Indices> 1 2 3</Indices>
					<REAL-Entries> -0.0840325674346558 -0.92424076732756 -1.28509594155505</REAL-Entries>
				</REAL-SparseArray>
			</VectorInstance>
			<VectorInstance id="226">
				<REAL-SparseArray n="3">
					<Indices> 1 2 3</Indices>
					<REAL-Entries> 3.24864879389005 2.88677354810988 4.90010386092319</REAL-Entries>
				</REAL-SparseArray>
			</VectorInstance>
			<VectorInstance id="227">
				<REAL-SparseArray n="3">
					<Indices> 1 2 3</Indices>
					<REAL-Entries> 0.0492746870183325 -0.614245848243425 -0.705233460072712</REAL-Entries>
				</REAL-SparseArray>
			</VectorInstance>
			<VectorInstance id="228">
				<REAL-SparseArray n="3">
					<Indices> 1 2 3</Indices>
					<REAL-Entries> -0.937198995933781 -0.530061256065407 -0.318658472417822</REAL-Entries>
				</REAL-SparseArray>
			</VectorInstance>
			<VectorInstance id="229">
				<REAL-SparseArray n="3">
					<Indices> 1 2 3</Indices>
					<REAL-Entries> 0.315889195924309 0.239534284334873 -0.125370978590377</REAL-Entries>
				</REAL-SparseArray>
			</VectorInstance>
			<VectorInstance id="230">
				<REAL-SparseArray n="3">
					<Indices> 1 2 3</Indices>
					<REAL-Entries> -0.457292879903023 -0.687716644069846 -0.898520953900157</REAL-Entries>
				</REAL-SparseArray>
			</VectorInstance>
			<VectorInstance id="231">
				<REAL-SparseArray n="3">
					<Indices> 1 2 3</Indices>
					<REAL-Entries> 0.182581941471321 -0.30532114639922 -0.511945966245267</REAL-Entries>
				</REAL-SparseArray>
			</VectorInstance>
			<VectorInstance id="232">
				<REAL-SparseArray n="3">
					<Indices> 1 2 3</Indices>
					<REAL-Entries> -0.390639252676529 0.372423305364396 0.454491502891958</REAL-Entries>
				</REAL-SparseArray>
			</VectorInstance>
			<VectorInstance id="233">
				<REAL-SparseArray n="3">
					<Indices> 1 2 3</Indices>
					<REAL-Entries> -0.216006667978823 0.5465605106117 -0.125370978590377</REAL-Entries>
				</REAL-SparseArray>
			</VectorInstance>
			<VectorInstance id="234">
				<REAL-SparseArray n="3">
					<Indices> 1 2 3</Indices>
					<REAL-Entries> -0.483954330793621 -0.10572226527738 -0.318658472417822</REAL-Entries>
				</REAL-SparseArray>
			</VectorInstance>
			<VectorInstance id="235">
				<REAL-SparseArray n="3">
					<Indices> 1 2 3</Indices>
					<REAL-Entries> -0.27066272366884 -0.292211223568269 -0.705233460072712</REAL-Entries>
				</REAL-SparseArray>
			</VectorInstance>
			<VectorInstance id="236">
				<REAL-SparseArray n="3">
					<Indices> 1 2 3</Indices>
					<REAL-Entries> 0.4225349994867 -1.26290989028207 -1.0918084477276</REAL-Entries>
				</REAL-SparseArray>
			</VectorInstance>
			<VectorInstance id="237">
				<REAL-SparseArray n="3">
					<Indices> 1 2 3</Indices>
					<REAL-Entries> 0.31815541925001 -0.599992647166009 -0.125370978590377</REAL-Entries>
				</REAL-SparseArray>
			</VectorInstance>
			<VectorInstance id="238">
				<REAL-SparseArray n="3">
					<Indices> 1 2 3</Indices>
					<REAL-Entries> -0.483954330793621 -2.04767071738194 -2.05824591686483</REAL-Entries>
				</REAL-SparseArray>
			</VectorInstance>
			<VectorInstance id="239">
				<REAL-SparseArray n="3">
					<Indices> 1 2 3</Indices>
					<REAL-Entries> -0.430631429012426 -1.50842109604564 -1.28509594155505</REAL-Entries>
				</REAL-SparseArray>
			</VectorInstance>
			<VectorInstance id="240">
				<REAL-SparseArray n="3">
					<Indices> 1 2 3</Indices>
					<REAL-Entries> -0.990521897714977 0.0116418027802025 -0.511945966245267</REAL-Entries>
				</REAL-SparseArray>
			</VectorInstance>
			<VectorInstance id="241">
				<REAL-SparseArray n="3">
					<Indices> 1 2 3</Indices>
					<REAL-Entries> -1.28379785751155 -3.33771543675069 -2.44482090451972</REAL-Entries>
				</REAL-SparseArray>
			</VectorInstance>
			<VectorInstance id="242">
				<REAL-SparseArray n="3">
					<Indices> 1 2 3</Indices>
					<REAL-Entries> 0.609165155720884 0.173552523773264 0.261204009064512</REAL-Entries>
				</REAL-SparseArray>
			</VectorInstance>
			<VectorInstance id="243">
				<REAL-SparseArray n="3">
					<Indices> 1 2 3</Indices>
					<REAL-Entries> -0.483954330793621 -0.302614769433008 -0.318658472417822</REAL-Entries>
				</REAL-SparseArray>
			</VectorInstance>
			<VectorInstance id="244">
				<REAL-SparseArray n="3">
					<Indices> 1 2 3</Indices>
					<REAL-Entries> 0.849118213736263 -0.527555647081943 -0.898520953900157</REAL-Entries>
				</REAL-SparseArray>
			</VectorInstance>
			<VectorInstance id="245">
				<REAL-SparseArray n="3">
					<Indices> 1 2 3</Indices>
					<REAL-Entries> 1.5156544860012 -0.136937431675341 -0.318658472417822</REAL-Entries>
				</REAL-SparseArray>
			</VectorInstance>
			<VectorInstance id="246">
				<REAL-SparseArray n="3">
					<Indices> 1 2 3</Indices>
					<REAL-Entries> 0.209243392361919 -1.02909748026621 -1.01449345019663</REAL-Entries>
				</REAL-SparseArray>
			</VectorInstance>
			<VectorInstance id="247">
				<REAL-SparseArray n="3">
					<Indices> 1 2 3</Indices>
					<REAL-Entries> 0.502519352158493 0.416402708759869 0.067916515237068</REAL-Entries>
				</REAL-SparseArray>
			</VectorInstance>
			<VectorInstance id="248">
				<REAL-SparseArray n="3">
					<Indices> 1 2 3</Indices>
					<REAL-Entries> 0.576451422040683 0.357833894465375 1.88481895721502</REAL-Entries>
				</REAL-SparseArray>
			</VectorInstance>
			<VectorInstance id="249">
				<REAL-SparseArray n="3">
					<Indices> 1 2 3</Indices>
					<REAL-Entries> -0.883876094152586 -0.0208660821446273 0.261204009064512</REAL-Entries>
				</REAL-SparseArray>
			</VectorInstance>
			<VectorInstance id="250">
				<REAL-SparseArray n="3">
					<Indices> 1 2 3</Indices>
					<REAL-Entries> -0.883876094152586 1.51700693545307 0.647778996719403</REAL-Entries>
				</REAL-SparseArray>
			</VectorInstance>
			<VectorInstance id="251">
				<REAL-SparseArray n="3">
					<Indices> 1 2 3</Indices>
					<REAL-Entries> -0.937198995933781 -0.418251794209473 -0.318658472417822</REAL-Entries>
				</REAL-SparseArray>
			</VectorInstance>
			<VectorInstance id="252">
				<REAL-SparseArray n="3">
					<Indices> 1 2 3</Indices>
					<REAL-Entries> -0.750568839699598 -0.0848516598368839 -0.318658472417822</REAL-Entries>
				</REAL-SparseArray>
			</VectorInstance>
			<VectorInstance id="253">
				<REAL-SparseArray n="3">
					<Indices> 1 2 3</Indices>
					<REAL-Entries> -0.483954330793621 -1.07340838990671 -0.434630968714316</REAL-Entries>
				</REAL-SparseArray>
			</VectorInstance>
			<VectorInstance id="254">
				<REAL-SparseArray n="3">
					<Indices> 1 2 3</Indices>
					<REAL-Entries> -0.483954330793621 -0.668543126009692 -0.318658472417822</REAL-Entries>
				</REAL-SparseArray>
			</VectorInstance>
			<VectorInstance id="255">
				<REAL-SparseArray n="3">
					<Indices> 1 2 3</Indices>
					<REAL-Entries> -0.217339821887644 0.250330263537491 0.067916515237068</REAL-Entries>
				</REAL-SparseArray>
			</VectorInstance>
			<VectorInstance id="256">
				<REAL-SparseArray n="3">
					<Indices> 1 2 3</Indices>
					<REAL-Entries> 0.315889195924309 0.203596803835131 0.261204009064512</REAL-Entries>
				</REAL-SparseArray>
			</VectorInstance>
			<VectorInstance id="257">
				<REAL-SparseArray n="3">
					<Indices> 1 2 3</Indices>
					<REAL-Entries> -0.883876094152586 0.546657202471689 0.261204009064512</REAL-Entries>
				</REAL-SparseArray>
			</VectorInstance>
			<VectorInstance id="258">
				<REAL-SparseArray n="3">
					<Indices> 1 2 3</Indices>
					<REAL-Entries> -0.883876094152586 2.22358413026202 2.38736644116641</REAL-Entries>
				</REAL-SparseArray>
			</VectorInstance>
			<VectorInstance id="259">
				<REAL-SparseArray n="3">
					<Indices> 1 2 3</Indices>
					<REAL-Entries> 0.449196450377298 0.544431308301367 0.454491502891958</REAL-Entries>
				</REAL-SparseArray>
			</VectorInstance>
			<VectorInstance id="260">
				<REAL-SparseArray n="3">
					<Indices> 1 2 3</Indices>
					<REAL-Entries> 1.5156544860012 -0.732482600967369 -0.125370978590377</REAL-Entries>
				</REAL-SparseArray>
			</VectorInstance>
			<VectorInstance id="261">
				<REAL-SparseArray n="3">
					<Indices> 1 2 3</Indices>
					<REAL-Entries> -1.76370397354231 -1.60008231375828 -0.898520953900157</REAL-Entries>
				</REAL-SparseArray>
			</VectorInstance>
			<VectorInstance id="262">
				<REAL-SparseArray n="3">
					<Indices> 1 2 3</Indices>
					<REAL-Entries> 0.315889195924309 -0.240721321203886 0.454491502891958</REAL-Entries>
				</REAL-SparseArray>
			</VectorInstance>
			<VectorInstance id="263">
				<REAL-SparseArray n="3">
					<Indices> 1 2 3</Indices>
					<REAL-Entries> 0.982425468189251 0.928416234299224 1.22764147820174</REAL-Entries>
				</REAL-SparseArray>
			</VectorInstance>
			<VectorInstance id="264">
				<REAL-SparseArray n="3">
					<Indices> 1 2 3</Indices>
					<REAL-Entries> -0.164016920106449 0.414737509231119 -0.125370978590377</REAL-Entries>
				</REAL-SparseArray>
			</VectorInstance>
			<VectorInstance id="265">
				<REAL-SparseArray n="3">
					<Indices> 1 2 3</Indices>
					<REAL-Entries> -1.01718334860557 -3.52555234781097 -3.60454586748439</REAL-Entries>
				</REAL-SparseArray>
			</VectorInstance>
			<VectorInstance id="266">
				<REAL-SparseArray n="3">
					<Indices> 1 2 3</Indices>
					<REAL-Entries> -1.57707381730813 -1.70003335574561 -1.86495842303738</REAL-Entries>
				</REAL-SparseArray>
			</VectorInstance>
			<VectorInstance id="267">
				<REAL-SparseArray n="3">
					<Indices> 1 2 3</Indices>
					<REAL-Entries> -1.28379785751155 -0.575573497955685 -0.705233460072712</REAL-Entries>
				</REAL-SparseArray>
			</VectorInstance>
			<VectorInstance id="268">
				<REAL-SparseArray n="3">
					<Indices> 1 2 3</Indices>
					<REAL-Entries> 0.262566294143114 -1.03833140779933 -1.28509594155505</REAL-Entries>
				</REAL-SparseArray>
			</VectorInstance>
			<VectorInstance id="269">
				<REAL-SparseArray n="3">
					<Indices> 1 2 3</Indices>
					<REAL-Entries> -0.169349210284568 -0.571034124278615 -0.125370978590377</REAL-Entries>
				</REAL-SparseArray>
			</VectorInstance>
			<VectorInstance id="270">
				<REAL-SparseArray n="3">
					<Indices> 1 2 3</Indices>
					<REAL-Entries> 0.582503704830286 1.54686572954777 1.26629897696724</REAL-Entries>
				</REAL-SparseArray>
			</VectorInstance>
			<VectorInstance id="271">
				<REAL-SparseArray n="3">
					<Indices> 1 2 3</Indices>
					<REAL-Entries> -0.910537545043184 -2.58276497955803 -1.67167092920994</REAL-Entries>
				</REAL-SparseArray>
			</VectorInstance>
			<VectorInstance id="272">
				<REAL-SparseArray n="3">
					<Indices> 1 2 3</Indices>
					<REAL-Entries> -1.15049060305856 -0.741151929381114 -0.898520953900157</REAL-Entries>
				</REAL-SparseArray>
			</VectorInstance>
			<VectorInstance id="273">
				<REAL-SparseArray n="3">
					<Indices> 1 2 3</Indices>
					<REAL-Entries> -1.15049060305856 -0.336583270073027 -0.125370978590377</REAL-Entries>
				</REAL-SparseArray>
			</VectorInstance>
			<VectorInstance id="274">
				<REAL-SparseArray n="3">
					<Indices> 1 2 3</Indices>
					<REAL-Entries> -0.963860446824379 -1.03147591614595 0.067916515237068</REAL-Entries>
				</REAL-SparseArray>
			</VectorInstance>
			<VectorInstance id="275">
				<REAL-SparseArray n="3">
					<Indices> 1 2 3</Indices>
					<REAL-Entries> -0.963860446824379 0.402903875946357 0.261204009064512</REAL-Entries>
				</REAL-SparseArray>
			</VectorInstance>
			<VectorInstance id="276">
				<REAL-SparseArray n="3">
					<Indices> 1 2 3</Indices>
					<REAL-Entries> -0.217339821887644 0.349174003767402 0.067916515237068</REAL-Entries>
				</REAL-SparseArray>
			</VectorInstance>
			<VectorInstance id="277">
				<REAL-SparseArray n="3">
					<Indices> 1 2 3</Indices>
					<REAL-Entries> -0.0840325674346558 -0.0657409540983967 -0.318658472417822</REAL-Entries>
				</REAL-SparseArray>
			</VectorInstance>
			<VectorInstance id="278">
				<REAL-SparseArray n="3">
					<Indices> 1 2 3</Indices>
					<REAL-Entries> 1.5156544860012 -0.912371165552571 -0.125370978590377</REAL-Entries>
				</REAL-SparseArray>
			</VectorInstance>
			<VectorInstance id="279">
				<REAL-SparseArray n="3">
					<Indices> 1 2 3</Indices>
					<REAL-Entries> -0.617261585246609 -0.0565459012082104 -0.705233460072712</REAL-Entries>
				</REAL-SparseArray>
			</VectorInstance>
			<VectorInstance id="280">
				<REAL-SparseArray n="3">
					<Indices> 1 2 3</Indices>
					<REAL-Entries> -0.617261585246609 0.573485500526779 -0.125370978590377</REAL-Entries>
				</REAL-SparseArray>
			</VectorInstance>
			<VectorInstance id="281">
				<REAL-SparseArray n="3">
					<Indices> 1 2 3</Indices>
					<REAL-Entries> 0.582503704830286 -0.769160528871673 -0.511945966245267</REAL-Entries>
				</REAL-SparseArray>
			</VectorInstance>
			<VectorInstance id="282">
				<REAL-SparseArray n="3">
					<Indices> 1 2 3</Indices>
					<REAL-Entries> -0.910537545043184 -1.90273780074586 -1.86495842303738</REAL-Entries>
				</REAL-SparseArray>
			</VectorInstance>
			<VectorInstance id="283">
				<REAL-SparseArray n="3">
					<Indices> 1 2 3</Indices>
					<REAL-Entries> -1.28379785751155 -0.742864820882217 -1.28509594155505</REAL-Entries>
				</REAL-SparseArray>
			</VectorInstance>
			<VectorInstance id="284">
				<REAL-SparseArray n="3">
					<Indices> 1 2 3</Indices>
					<REAL-Entries> 0.182581941471321 0.568290339043207 1.42092897202918</REAL-Entries>
				</REAL-SparseArray>
			</VectorInstance>
			<VectorInstance id="285">
				<REAL-SparseArray n="3">
					<Indices> 1 2 3</Indices>
					<REAL-Entries> 0.849118213736263 0.377815128683592 0.647778996719403</REAL-Entries>
				</REAL-SparseArray>
			</VectorInstance>
			<VectorInstance id="286">
				<REAL-SparseArray n="3">
					<Indices> 1 2 3</Indices>
					<REAL-Entries> -0.883876094152586 0.093810621835161 0.067916515237068</REAL-Entries>
				</REAL-SparseArray>
			</VectorInstance>
			<VectorInstance id="287">
				<REAL-SparseArray n="3">
					<Indices> 1 2 3</Indices>
					<REAL-Entries> -1.15049060305856 -0.424374669142882 -0.898520953900157</REAL-Entries>
				</REAL-SparseArray>
			</VectorInstance>
			<VectorInstance id="288">
				<REAL-SparseArray n="3">
					<Indices> 1 2 3</Indices>
					<REAL-Entries> 1.03574836997045 0.012335494252982 0.261204009064512</REAL-Entries>
				</REAL-SparseArray>
			</VectorInstance>
			<VectorInstance id="289">
				<REAL-SparseArray n="3">
					<Indices> 1 2 3</Indices>
					<REAL-Entries> -0.483954330793621 1.43984093397975 0.647778996719403</REAL-Entries>
				</REAL-SparseArray>
			</VectorInstance>
			<VectorInstance id="290">
				<REAL-SparseArray n="3">
					<Indices> 1 2 3</Indices>
					<REAL-Entries> -0.350647076340633 0.283671055728684 -0.318658472417822</REAL-Entries>
				</REAL-SparseArray>
			</VectorInstance>
			<VectorInstance id="291">
				<REAL-SparseArray n="3">
					<Indices> 1 2 3</Indices>
					<REAL-Entries> -0.37730852723123 1.03642161745379 0.261204009064512</REAL-Entries>
				</REAL-SparseArray>
			</VectorInstance>
			<VectorInstance id="292">
				<REAL-SparseArray n="3">
					<Indices> 1 2 3</Indices>
					<REAL-Entries> -0.483954330793621 -0.741804459476772 0.067916515237068</REAL-Entries>
				</REAL-SparseArray>
			</VectorInstance>
			<VectorInstance id="293">
				<REAL-SparseArray n="3">
					<Indices> 1 2 3</Indices>
					<REAL-Entries> -0.661786208233907 0.598138903203365 -0.318658472417822</REAL-Entries>
				</REAL-SparseArray>
			</VectorInstance>
			<VectorInstance id="294">
				<REAL-SparseArray n="3">
					<Indices> 1 2 3</Indices>
					<REAL-Entries> 0.689149508392677 0.696752513909711 0.841066490546848</REAL-Entries>
				</REAL-SparseArray>
			</VectorInstance>
			<VectorInstance id="295">
				<REAL-SparseArray n="3">
					<Indices> 1 2 3</Indices>
					<REAL-Entries> -0.483954330793621 -1.06733541094826 -1.0918084477276</REAL-Entries>
				</REAL-SparseArray>
			</VectorInstance>
			<VectorInstance id="296">
				<REAL-SparseArray n="3">
					<Indices> 1 2 3</Indices>
					<REAL-Entries> -0.483954330793621 -0.331255245318746 -0.318658472417822</REAL-Entries>
				</REAL-SparseArray>
			</VectorInstance>
			<VectorInstance id="297">
				<REAL-SparseArray n="3">
					<Indices> 1 2 3</Indices>
					<REAL-Entries> 0.262566294143114 0.00248900357950764 -0.511945966245267</REAL-Entries>
				</REAL-SparseArray>
			</VectorInstance>
			<VectorInstance id="298">
				<REAL-SparseArray n="3">
					<Indices> 1 2 3</Indices>
					<REAL-Entries> 1.5156544860012 0.204261148159889 -0.125370978590377</REAL-Entries>
				</REAL-SparseArray>
			</VectorInstance>
			<VectorInstance id="299">
				<REAL-SparseArray n="3">
					<Indices> 1 2 3</Indices>
					<REAL-Entries> 0.902441115517458 -0.184100462882723 0.261204009064512</REAL-Entries>
				</REAL-SparseArray>
			</VectorInstance>
			<VectorInstance id="300">
				<REAL-SparseArray n="3">
					<Indices> 1 2 3</Indices>
					<REAL-Entries> -1.02518186523704 -1.5682925533365 -1.67167092920994</REAL-Entries>
				</REAL-SparseArray>
			</VectorInstance>
			<VectorInstance id="301">
				<REAL-SparseArray n="3">
					<Indices> 1 2 3</Indices>
					<REAL-Entries> 1.43567013332941 0.260722654732534 0.067916515237068</REAL-Entries>
				</REAL-SparseArray>
			</VectorInstance>
			<VectorInstance id="302">
				<REAL-SparseArray n="3">
					<Indices> 1 2 3</Indices>
					<REAL-Entries> -1.20381350483976 0.180636834887226 0.222546510299015</REAL-Entries>
				</REAL-SparseArray>
			</VectorInstance>
			<VectorInstance id="303">
				<REAL-SparseArray n="3">
					<Indices> 1 2 3</Indices>
					<REAL-Entries> -0.483954330793621 -1.52833399758362 -1.28509594155505</REAL-Entries>
				</REAL-SparseArray>
			</VectorInstance>
			<VectorInstance id="304">
				<REAL-SparseArray n="3">
					<Indices> 1 2 3</Indices>
					<REAL-Entries> -0.483954330793621 -0.826012672553054 -0.511945966245267</REAL-Entries>
				</REAL-SparseArray>
			</VectorInstance>
			<VectorInstance id="305">
				<REAL-SparseArray n="3">
					<Indices> 1 2 3</Indices>
					<REAL-Entries> 0.102597588799528 -0.0377244862615693 -0.705233460072712</REAL-Entries>
				</REAL-SparseArray>
			</VectorInstance>
			<VectorInstance id="306">
				<REAL-SparseArray n="3">
					<Indices> 1 2 3</Indices>
					<REAL-Entries> 0.102597588799528 0.526387781434949 -0.318658472417822</REAL-Entries>
				</REAL-SparseArray>
			</VectorInstance>
			<VectorInstance id="307">
				<REAL-SparseArray n="3">
					<Indices> 1 2 3</Indices>
					<REAL-Entries> -0.00404821476286283 0.673147255184005 1.22764147820174</REAL-Entries>
				</REAL-SparseArray>
			</VectorInstance>
			<VectorInstance id="308">
				<REAL-SparseArray n="3">
					<Indices> 1 2 3</Indices>
					<REAL-Entries> 0.955764017298653 -1.21551397782115 -1.47838343538249</REAL-Entries>
				</REAL-SparseArray>
			</VectorInstance>
			<VectorInstance id="309">
				<REAL-SparseArray n="3">
					<Indices> 1 2 3</Indices>
					<REAL-Entries> 1.11573272264224 0.355280348566499 1.03435398437429</REAL-Entries>
				</REAL-SparseArray>
			</VectorInstance>
			<VectorInstance id="310">
				<REAL-SparseArray n="3">
					<Indices> 1 2 3</Indices>
					<REAL-Entries> 0.849118213736263 -0.92260399224989 -0.898520953900157</REAL-Entries>
				</REAL-SparseArray>
			</VectorInstance>
			<VectorInstance id="311">
				<REAL-SparseArray n="3">
					<Indices> 1 2 3</Indices>
					<REAL-Entries> 0.315889195924309 -2.0863427215805 -1.28509594155505</REAL-Entries>
				</REAL-SparseArray>
			</VectorInstance>
			<VectorInstance id="312">
				<REAL-SparseArray n="3">
					<Indices> 1 2 3</Indices>
					<REAL-Entries> -0.830553192371391 -0.988625464788148 -0.705233460072712</REAL-Entries>
				</REAL-SparseArray>
			</VectorInstance>
			<VectorInstance id="313">
				<REAL-SparseArray n="3">
					<Indices> 1 2 3</Indices>
					<REAL-Entries> 1.64896174045419 0.953276808426874 0.647778996719403</REAL-Entries>
				</REAL-SparseArray>
			</VectorInstance>
			<VectorInstance id="314">
				<REAL-SparseArray n="3">
					<Indices> 1 2 3</Indices>
					<REAL-Entries> -0.643923036137207 0.25050102303655 0.454491502891958</REAL-Entries>
				</REAL-SparseArray>
			</VectorInstance>
			<VectorInstance id="315">
				<REAL-SparseArray n="3">
					<Indices> 1 2 3</Indices>
					<REAL-Entries> -0.297324174559437 0.859270097549552 0.067916515237068</REAL-Entries>
				</REAL-SparseArray>
			</VectorInstance>
			<VectorInstance id="316">
				<REAL-SparseArray n="3">
					<Indices> 1 2 3</Indices>
					<REAL-Entries> 2.18219075826615 -2.74376679295614 -3.60454586748439</REAL-Entries>
				</REAL-SparseArray>
			</VectorInstance>
			<VectorInstance id="317">
				<REAL-SparseArray n="3">
					<Indices> 1 2 3</Indices>
					<REAL-Entries> 2.18219075826615 -1.1659490216546 -3.60454586748439</REAL-Entries>
				</REAL-SparseArray>
			</VectorInstance>
			<VectorInstance id="318">
				<REAL-SparseArray n="3">
					<Indices> 1 2 3</Indices>
					<REAL-Entries> 2.18219075826615 -0.77149457882922 -3.60454586748439</REAL-Entries>
				</REAL-SparseArray>
			</VectorInstance>
			<VectorInstance id="319">
				<REAL-SparseArray n="3">
					<Indices> 1 2 3</Indices>
					<REAL-Entries> -1.00259961307814 0.377418579967861 -0.511945966245267</REAL-Entries>
				</REAL-SparseArray>
			</VectorInstance>
			<VectorInstance id="320">
				<REAL-SparseArray n="3">
					<Indices> 1 2 3</Indices>
					<REAL-Entries> -1.00259961307814 0.773595531277199 0.647778996719403</REAL-Entries>
				</REAL-SparseArray>
			</VectorInstance>
			<VectorInstance id="321">
				<REAL-SparseArray n="3">
					<Indices> 1 2 3</Indices>
					<REAL-Entries> 0.0492746870183325 0.206681685217586 -0.125370978590377</REAL-Entries>
				</REAL-SparseArray>
			</VectorInstance>
			<VectorInstance id="322">
				<REAL-SparseArray n="3">
					<Indices> 1 2 3</Indices>
					<REAL-Entries> 0.4225349994867 -0.0741554745486295 0.647778996719403</REAL-Entries>
				</REAL-SparseArray>
			</VectorInstance>
			<VectorInstance id="323">
				<REAL-SparseArray n="3">
					<Indices> 1 2 3</Indices>
					<REAL-Entries> 0.795795311955067 -0.504283504657185 -0.511945966245267</REAL-Entries>
				</REAL-SparseArray>
			</VectorInstance>
			<VectorInstance id="324">
				<REAL-SparseArray n="3">
					<Indices> 1 2 3</Indices>
					<REAL-Entries> 1.595638838673 0.102904433213363 -0.318658472417822</REAL-Entries>
				</REAL-SparseArray>
			</VectorInstance>
			<VectorInstance id="325">
				<REAL-SparseArray n="3">
					<Indices> 1 2 3</Indices>
					<REAL-Entries> 0.209243392361919 -1.35137632383748 -1.0918084477276</REAL-Entries>
				</REAL-SparseArray>
			</VectorInstance>
			<VectorInstance id="326">
				<REAL-SparseArray n="3">
					<Indices> 1 2 3</Indices>
					<REAL-Entries> -0.217339821887644 -0.912126162793053 -0.511945966245267</REAL-Entries>
				</REAL-SparseArray>
			</VectorInstance>
			<VectorInstance id="327">
				<REAL-SparseArray n="3">
					<Indices> 1 2 3</Indices>
					<REAL-Entries> -0.27066272366884 -0.384367463115143 -0.125370978590377</REAL-Entries>
				</REAL-SparseArray>
			</VectorInstance>
			<VectorInstance id="328">
				<REAL-SparseArray n="3">
					<Indices> 1 2 3</Indices>
					<REAL-Entries> 1.32902432976702 1.29053373606037 1.03435398437429</REAL-Entries>
				</REAL-SparseArray>
			</VectorInstance>
			<VectorInstance id="329">
				<REAL-SparseArray n="3">
					<Indices> 1 2 3</Indices>
					<REAL-Entries> -0.617261585246609 -1.66200536641986 -1.47838343538249</REAL-Entries>
				</REAL-SparseArray>
			</VectorInstance>
			<VectorInstance id="330">
				<REAL-SparseArray n="3">
					<Indices> 1 2 3</Indices>
					<REAL-Entries> 0.902441115517458 1.07580197024412 1.61421646585663</REAL-Entries>
				</REAL-SparseArray>
			</VectorInstance>
			<VectorInstance id="331">
				<REAL-SparseArray n="3">
					<Indices> 1 2 3</Indices>
					<REAL-Entries> -0.483954330793621 0.0283280661092079 -0.125370978590377</REAL-Entries>
				</REAL-SparseArray>
			</VectorInstance>
			<VectorInstance id="332">
				<REAL-SparseArray n="3">
					<Indices> 1 2 3</Indices>
					<REAL-Entries> 0.182581941471321 2.6770526787432 1.61421646585663</REAL-Entries>
				</REAL-SparseArray>
			</VectorInstance>
			<VectorInstance id="333">
				<REAL-SparseArray n="3">
					<Indices> 1 2 3</Indices>
					<REAL-Entries> -0.670584487027805 -0.0845997732194986 -0.125370978590377</REAL-Entries>
				</REAL-SparseArray>
			</VectorInstance>
			<VectorInstance id="334">
				<REAL-SparseArray n="3">
					<Indices> 1 2 3</Indices>
					<REAL-Entries> -0.483954330793621 -0.178036092776614 0.647778996719403</REAL-Entries>
				</REAL-SparseArray>
			</VectorInstance>
			<VectorInstance id="335">
				<REAL-SparseArray n="3">
					<Indices> 1 2 3</Indices>
					<REAL-Entries> -0.483954330793621 -0.0335927331989743 0.067916515237068</REAL-Entries>
				</REAL-SparseArray>
			</VectorInstance>
			<VectorInstance id="336">
				<REAL-SparseArray n="3">
					<Indices> 1 2 3</Indices>
					<REAL-Entries> -0.643923036137207 -0.761249008885704 -0.511945966245267</REAL-Entries>
				</REAL-SparseArray>
			</VectorInstance>
			<VectorInstance id="337">
				<REAL-SparseArray n="3">
					<Indices> 1 2 3</Indices>
					<REAL-Entries> 1.64896174045419 -0.630896955643935 -0.898520953900157</REAL-Entries>
				</REAL-SparseArray>
			</VectorInstance>
			<VectorInstance id="338">
				<REAL-SparseArray n="3">
					<Indices> 1 2 3</Indices>
					<REAL-Entries> -1.09716770127737 -0.448759125608451 -0.511945966245267</REAL-Entries>
				</REAL-SparseArray>
			</VectorInstance>
			<VectorInstance id="339">
				<REAL-SparseArray n="3">
					<Indices> 1 2 3</Indices>
					<REAL-Entries> 0.849118213736263 -1.27378548803852 -1.0918084477276</REAL-Entries>
				</REAL-SparseArray>
			</VectorInstance>
			<VectorInstance id="340">
				<REAL-SparseArray n="3">
					<Indices> 1 2 3</Indices>
					<REAL-Entries> 0.849118213736263 -0.751629966600603 -0.125370978590377</REAL-Entries>
				</REAL-SparseArray>
			</VectorInstance>
			<VectorInstance id="341">
				<REAL-SparseArray n="3">
					<Indices> 1 2 3</Indices>
					<REAL-Entries> 0.315889195924309 0.995661325028503 0.841066490546848</REAL-Entries>
				</REAL-SparseArray>
			</VectorInstance>
			<VectorInstance id="342">
				<REAL-SparseArray n="3">
					<Indices> 1 2 3</Indices>
					<REAL-Entries> -0.27066272366884 -0.378950327010254 -0.705233460072712</REAL-Entries>
				</REAL-SparseArray>
			</VectorInstance>
			<VectorInstance id="343">
				<REAL-SparseArray n="3">
					<Indices> 1 2 3</Indices>
					<REAL-Entries> -0.803891741480793 -0.909362151078869 -1.28509594155505</REAL-Entries>
				</REAL-SparseArray>
			</VectorInstance>
			<VectorInstance id="344">
				<REAL-SparseArray n="3">
					<Indices> 1 2 3</Indices>
					<REAL-Entries> -0.430631429012426 0.62176193940723 0.261204009064512</REAL-Entries>
				</REAL-SparseArray>
			</VectorInstance>
			<VectorInstance id="345">
				<REAL-SparseArray n="3">
					<Indices> 1 2 3</Indices>
					<REAL-Entries> -1.39044366107394 -0.264338866625154 0.261204009064512</REAL-Entries>
				</REAL-SparseArray>
			</VectorInstance>
			<VectorInstance id="346">
				<REAL-SparseArray n="3">
					<Indices> 1 2 3</Indices>
					<REAL-Entries> 2.18219075826615 0.637590555456361 1.42092897202918</REAL-Entries>
				</REAL-SparseArray>
			</VectorInstance>
			<VectorInstance id="347">
				<REAL-SparseArray n="3">
					<Indices> 1 2 3</Indices>
					<REAL-Entries> 1.5156544860012 1.40107056481526 1.03435398437429</REAL-Entries>
				</REAL-SparseArray>
			</VectorInstance>
			<VectorInstance id="348">
				<REAL-SparseArray n="3">
					<Indices> 1 2 3</Indices>
					<REAL-Entries> -0.750568839699598 0.340737620612848 1.80750395968407</REAL-Entries>
				</REAL-SparseArray>
			</VectorInstance>
			<VectorInstance id="349">
				<REAL-SparseArray n="3">
					<Indices> 1 2 3</Indices>
					<REAL-Entries> -0.483954330793621 -0.732049134546682 -0.898520953900157</REAL-Entries>
				</REAL-SparseArray>
			</VectorInstance>
			<VectorInstance id="350">
				<REAL-SparseArray n="3">
					<Indices> 1 2 3</Indices>
					<REAL-Entries> -0.483954330793621 0.622244452487139 0.067916515237068</REAL-Entries>
				</REAL-SparseArray>
			</VectorInstance>
			<VectorInstance id="351">
				<REAL-SparseArray n="3">
					<Indices> 1 2 3</Indices>
					<REAL-Entries> 1.64896174045419 -0.915622163707726 -0.898520953900157</REAL-Entries>
				</REAL-SparseArray>
			</VectorInstance>
			<VectorInstance id="352">
				<REAL-SparseArray n="3">
					<Indices> 1 2 3</Indices>
					<REAL-Entries> 0.849384681789445 0.429798497048088 0.261204009064512</REAL-Entries>
				</REAL-SparseArray>
			</VectorInstance>
			<VectorInstance id="353">
				<REAL-SparseArray n="3">
					<Indices> 1 2 3</Indices>
					<REAL-Entries> -1.15049060305856 -0.0718961330634438 0.261204009064512</REAL-Entries>
				</REAL-SparseArray>
			</VectorInstance>
			<VectorInstance id="354">
				<REAL-SparseArray n="3">
					<Indices> 1 2 3</Indices>
					<REAL-Entries> -1.36378221018334 0.0517744499248057 0.067916515237068</REAL-Entries>
				</REAL-SparseArray>
			</VectorInstance>
			<VectorInstance id="355">
				<REAL-SparseArray n="3">
					<Indices> 1 2 3</Indices>
					<REAL-Entries> -1.28379785751155 -0.319664944320143 -0.705233460072712</REAL-Entries>
				</REAL-SparseArray>
			</VectorInstance>
			<VectorInstance id="356">
				<REAL-SparseArray n="3">
					<Indices> 1 2 3</Indices>
					<REAL-Entries> -0.483954330793621 -0.647523182512671 -0.898520953900157</REAL-Entries>
				</REAL-SparseArray>
			</VectorInstance>
			<VectorInstance id="357">
				<REAL-SparseArray n="3">
					<Indices> 1 2 3</Indices>
					<REAL-Entries> -0.483954330793621 0.311321538730659 0.647778996719403</REAL-Entries>
				</REAL-SparseArray>
			</VectorInstance>
			<VectorInstance id="358">
				<REAL-SparseArray n="3">
					<Indices> 1 2 3</Indices>
					<REAL-Entries> -0.430631429012426 -0.927287510029162 -0.511945966245267</REAL-Entries>
				</REAL-SparseArray>
			</VectorInstance>
			<VectorInstance id="359">
				<REAL-SparseArray n="3">
					<Indices> 1 2 3</Indices>
					<REAL-Entries> -0.617261585246609 0.965129526596824 0.841066490546848</REAL-Entries>
				</REAL-SparseArray>
			</VectorInstance>
			<VectorInstance id="360">
				<REAL-SparseArray n="3">
					<Indices> 1 2 3</Indices>
					<REAL-Entries> 1.01692555487941 0.440509006221715 0.261204009064512</REAL-Entries>
				</REAL-SparseArray>
			</VectorInstance>
			<VectorInstance id="361">
				<REAL-SparseArray n="3">
					<Indices> 1 2 3</Indices>
					<REAL-Entries> -0.750568839699598 -0.451548197426409 -0.511945966245267</REAL-Entries>
				</REAL-SparseArray>
			</VectorInstance>
			<VectorInstance id="362">
				<REAL-SparseArray n="3">
					<Indices> 1 2 3</Indices>
					<REAL-Entries> -0.883876094152586 -0.846002640251793 -0.705233460072712</REAL-Entries>
				</REAL-SparseArray>
			</VectorInstance>
			<VectorInstance id="363">
				<REAL-SparseArray n="3">
					<Indices> 1 2 3</Indices>
					<REAL-Entries> -0.883876094152586 -0.403337098858861 -0.511945966245267</REAL-Entries>
				</REAL-SparseArray>
			</VectorInstance>
			<VectorInstance id="364">
				<REAL-SparseArray n="3">
					<Indices> 1 2 3</Indices>
					<REAL-Entries> -0.00404821476286283 -0.337594691721297 -0.511945966245267</REAL-Entries>
				</REAL-SparseArray>
			</VectorInstance>
			<VectorInstance id="365">
				<REAL-SparseArray n="3">
					<Indices> 1 2 3</Indices>
					<REAL-Entries> -0.27066272366884 -0.644705650778204 -0.511945966245267</REAL-Entries>
				</REAL-SparseArray>
			</VectorInstance>
			<VectorInstance id="366">
				<REAL-SparseArray n="3">
					<Indices> 1 2 3</Indices>
					<REAL-Entries> -0.483954330793621 0.951786458763407 0.841066490546848</REAL-Entries>
				</REAL-SparseArray>
			</VectorInstance>
			<VectorInstance id="367">
				<REAL-SparseArray n="3">
					<Indices> 1 2 3</Indices>
					<REAL-Entries> 0.315889195924309 1.5402284705578 1.61421646585663</REAL-Entries>
				</REAL-SparseArray>
			</VectorInstance>
			<VectorInstance id="368">
				<REAL-SparseArray n="3">
					<Indices> 1 2 3</Indices>
					<REAL-Entries> -1.08383697583207 -1.14022373190512 -0.898520953900157</REAL-Entries>
				</REAL-SparseArray>
			</VectorInstance>
			<VectorInstance id="369">
				<REAL-SparseArray n="3">
					<Indices> 1 2 3</Indices>
					<REAL-Entries> -1.55041236641753 0.614640511420625 1.42092897202918</REAL-Entries>
				</REAL-SparseArray>
			</VectorInstance>
			<VectorInstance id="370">
				<REAL-SparseArray n="3">
					<Indices> 1 2 3</Indices>
					<REAL-Entries> 0.582503704830286 -0.513732269656196 -0.511945966245267</REAL-Entries>
				</REAL-SparseArray>
			</VectorInstance>
			<VectorInstance id="371">
				<REAL-SparseArray n="3">
					<Indices> 1 2 3</Indices>
					<REAL-Entries> 0.849118213736263 1.30905924705369 2.38736644116641</REAL-Entries>
				</REAL-SparseArray>
			</VectorInstance>
			<VectorInstance id="372">
				<REAL-SparseArray n="3">
					<Indices> 1 2 3</Indices>
					<REAL-Entries> -1.68371962087052 -1.05234614212089 0.067916515237068</REAL-Entries>
				</REAL-SparseArray>
			</VectorInstance>
			<VectorInstance id="373">
				<REAL-SparseArray n="3">
					<Indices> 1 2 3</Indices>
					<REAL-Entries> -0.483954330793621 0.0969823703957682 -0.511945966245267</REAL-Entries>
				</REAL-SparseArray>
			</VectorInstance>
			<VectorInstance id="374">
				<REAL-SparseArray n="3">
					<Indices> 1 2 3</Indices>
					<REAL-Entries> -1.55041236641753 0.411868749646934 2.7739414288213</REAL-Entries>
				</REAL-SparseArray>
			</VectorInstance>
			<VectorInstance id="375">
				<REAL-SparseArray n="3">
					<Indices> 1 2 3</Indices>
					<REAL-Entries> 0.689149508392677 -1.61884115971338 -2.05824591686483</REAL-Entries>
				</REAL-SparseArray>
			</VectorInstance>
			<VectorInstance id="376">
				<REAL-SparseArray n="3">
					<Indices> 1 2 3</Indices>
					<REAL-Entries> 0.689149508392677 0.0575902222945048 -0.511945966245267</REAL-Entries>
				</REAL-SparseArray>
			</VectorInstance>
			<VectorInstance id="377">
				<REAL-SparseArray n="3">
					<Indices> 1 2 3</Indices>
					<REAL-Entries> -0.37730852723123 -1.62510234134553 -1.67167092920994</REAL-Entries>
				</REAL-SparseArray>
			</VectorInstance>
			<VectorInstance id="378">
				<REAL-SparseArray n="3">
					<Indices> 1 2 3</Indices>
					<REAL-Entries> 0.315889195924309 -0.587742509190066 -0.511945966245267</REAL-Entries>
				</REAL-SparseArray>
			</VectorInstance>
			<VectorInstance id="379">
				<REAL-SparseArray n="3">
					<Indices> 1 2 3</Indices>
					<REAL-Entries> 1.27570142798583 -0.768270155590865 -0.511945966245267</REAL-Entries>
				</REAL-SparseArray>
			</VectorInstance>
			<VectorInstance id="380">
				<REAL-SparseArray n="3">
					<Indices> 1 2 3</Indices>
					<REAL-Entries> -1.31045930840215 -1.62417753607451 -1.86495842303738</REAL-Entries>
				</REAL-SparseArray>
			</VectorInstance>
			<VectorInstance id="381">
				<REAL-SparseArray n="3">
					<Indices> 1 2 3</Indices>
					<REAL-Entries> -1.31045930840215 -0.339248093577451 -0.705233460072712</REAL-Entries>
				</REAL-SparseArray>
			</VectorInstance>
			<VectorInstance id="382">
				<REAL-SparseArray n="3">
					<Indices> 1 2 3</Indices>
					<REAL-Entries> -0.483954330793621 0.65380080791317 0.261204009064512</REAL-Entries>
				</REAL-SparseArray>
			</VectorInstance>
			<VectorInstance id="383">
				<REAL-SparseArray n="3">
					<Indices> 1 2 3</Indices>
					<REAL-Entries> 1.00908691907985 -0.412405017084732 0.067916515237068</REAL-Entries>
				</REAL-SparseArray>
			</VectorInstance>
			<VectorInstance id="384">
				<REAL-SparseArray n="3">
					<Indices> 1 2 3</Indices>
					<REAL-Entries> -0.110694018325254 -0.265518984629119 -0.241343474886848</REAL-Entries>
				</REAL-SparseArray>
			</VectorInstance>
			<VectorInstance id="385">
				<REAL-SparseArray n="3">
					<Indices> 1 2 3</Indices>
					<REAL-Entries> -0.110694018325254 0.259043468133434 0.454491502891958</REAL-Entries>
				</REAL-SparseArray>
			</VectorInstance>
			<VectorInstance id="386">
				<REAL-SparseArray n="3">
					<Indices> 1 2 3</Indices>
					<REAL-Entries> -0.110694018325254 0.312738837313853 0.841066490546848</REAL-Entries>
				</REAL-SparseArray>
			</VectorInstance>
			<VectorInstance id="387">
				<REAL-SparseArray n="3">
					<Indices> 1 2 3</Indices>
					<REAL-Entries> -1.46776190933882 0.758764855394081 0.067916515237068</REAL-Entries>
				</REAL-SparseArray>
			</VectorInstance>
			<VectorInstance id="388">
				<REAL-SparseArray n="3">
					<Indices> 1 2 3</Indices>
					<REAL-Entries> -0.963860446824379 -0.431074991185395 -0.898520953900157</REAL-Entries>
				</REAL-SparseArray>
			</VectorInstance>
			<VectorInstance id="389">
				<REAL-SparseArray n="3">
					<Indices> 1 2 3</Indices>
					<REAL-Entries> -0.537277232574816 -1.2158404926839 -1.28509594155505</REAL-Entries>
				</REAL-SparseArray>
			</VectorInstance>
			<VectorInstance id="390">
				<REAL-SparseArray n="3">
					<Indices> 1 2 3</Indices>
					<REAL-Entries> -0.937198995933781 0.706366072083325 0.261204009064512</REAL-Entries>
				</REAL-SparseArray>
			</VectorInstance>
			<VectorInstance id="391">
				<REAL-SparseArray n="3">
					<Indices> 1 2 3</Indices>
					<REAL-Entries> 1.27570142798583 -0.567466418747124 -0.511945966245267</REAL-Entries>
				</REAL-SparseArray>
			</VectorInstance>
			<VectorInstance id="392">
				<REAL-SparseArray n="3">
					<Indices> 1 2 3</Indices>
					<REAL-Entries> -0.483954330793621 -0.918150717828401 0.454491502891958</REAL-Entries>
				</REAL-SparseArray>
			</VectorInstance>
			<VectorInstance id="393">
				<REAL-SparseArray n="3">
					<Indices> 1 2 3</Indices>
					<REAL-Entries> 4.58172133841994 2.0452434847267 1.42092897202918</REAL-Entries>
				</REAL-SparseArray>
			</VectorInstance>
			<VectorInstance id="394">
				<REAL-SparseArray n="3">
					<Indices> 1 2 3</Indices>
					<REAL-Entries> 0.315889195924309 0.388665547127794 1.42092897202918</REAL-Entries>
				</REAL-SparseArray>
			</VectorInstance>
			<VectorInstance id="395">
				<REAL-SparseArray n="3">
					<Indices> 1 2 3</Indices>
					<REAL-Entries> -1.12382915216797 0.0944740722477849 -0.318658472417822</REAL-Entries>
				</REAL-SparseArray>
			</VectorInstance>
			<VectorInstance id="396">
				<REAL-SparseArray n="3">
					<Indices> 1 2 3</Indices>
					<REAL-Entries> 1.48899303511061 -1.23303311057049 -0.705233460072712</REAL-Entries>
				</REAL-SparseArray>
			</VectorInstance>
			<VectorInstance id="397">
				<REAL-SparseArray n="3">
					<Indices> 1 2 3</Indices>
					<REAL-Entries> -1.57707381730813 -1.24666247200171 -0.705233460072712</REAL-Entries>
				</REAL-SparseArray>
			</VectorInstance>
			<VectorInstance id="398">
				<REAL-SparseArray n="3">
					<Indices> 1 2 3</Indices>
					<REAL-Entries> -0.323985625450035 -0.404243890681447 -0.511945966245267</REAL-Entries>
				</REAL-SparseArray>
			</VectorInstance>
			<VectorInstance id="399">
				<REAL-SparseArray n="3">
					<Indices> 1 2 3</Indices>
					<REAL-Entries> -0.323985625450035 0.295281229600023 0.261204009064512</REAL-Entries>
				</REAL-SparseArray>
			</VectorInstance>
			<VectorInstance id="400">
				<REAL-SparseArray n="3">
					<Indices> 1 2 3</Indices>
					<REAL-Entries> 0.982425468189251 3.38474547704134 2.58065393499385</REAL-Entries>
				</REAL-SparseArray>
			</VectorInstance>
			<VectorInstance id="401">
				<REAL-SparseArray n="3">
					<Indices> 1 2 3</Indices>
					<REAL-Entries> -0.214513633238093 -0.348089351209312 -0.125370978590377</REAL-Entries>
				</REAL-SparseArray>
			</VectorInstance>
			<VectorInstance id="402">
				<REAL-SparseArray n="3">
					<Indices> 1 2 3</Indices>
					<REAL-Entries> 0.0492746870183325 0.492155937124667 1.22764147820174</REAL-Entries>
				</REAL-SparseArray>
			</VectorInstance>
			<VectorInstance id="403">
				<REAL-SparseArray n="3">
					<Indices> 1 2 3</Indices>
					<REAL-Entries> 1.27570142798583 0.125735993193287 0.261204009064512</REAL-Entries>
				</REAL-SparseArray>
			</VectorInstance>
			<VectorInstance id="404">
				<REAL-SparseArray n="3">
					<Indices> 1 2 3</Indices>
					<REAL-Entries> -1.01291751646308 -1.05438614893631 -1.28509594155505</REAL-Entries>
				</REAL-SparseArray>
			</VectorInstance>
			<VectorInstance id="405">
				<REAL-SparseArray n="3">
					<Indices> 1 2 3</Indices>
					<REAL-Entries> -0.483954330793621 -2.18026044606274 -1.0918084477276</REAL-Entries>
				</REAL-SparseArray>
			</VectorInstance>
			<VectorInstance id="406">
				<REAL-SparseArray n="3">
					<Indices> 1 2 3</Indices>
					<REAL-Entries> -0.483954330793621 -1.34707606172749 -1.47838343538249</REAL-Entries>
				</REAL-SparseArray>
			</VectorInstance>
			<VectorInstance id="407">
				<REAL-SparseArray n="3">
					<Indices> 1 2 3</Indices>
					<REAL-Entries> -0.483954330793621 -0.606467720096151 -0.898520953900157</REAL-Entries>
				</REAL-SparseArray>
			</VectorInstance>
			<VectorInstance id="408">
				<REAL-SparseArray n="3">
					<Indices> 1 2 3</Indices>
					<REAL-Entries> -1.12382915216797 0.0563041814663053 -0.125370978590377</REAL-Entries>
				</REAL-SparseArray>
			</VectorInstance>
			<VectorInstance id="409">
				<REAL-SparseArray n="3">
					<Indices> 1 2 3</Indices>
					<REAL-Entries> 0.849118213736263 0.889366233067137 0.261204009064512</REAL-Entries>
				</REAL-SparseArray>
			</VectorInstance>
			<VectorInstance id="410">
				<REAL-SparseArray n="3">
					<Indices> 1 2 3</Indices>
					<REAL-Entries> -0.750568839699598 -0.389318873523692 -0.511945966245267</REAL-Entries>
				</REAL-SparseArray>
			</VectorInstance>
			<VectorInstance id="411">
				<REAL-SparseArray n="3">
					<Indices> 1 2 3</Indices>
					<REAL-Entries> -1.23047495573036 -0.377040136003835 -0.125370978590377</REAL-Entries>
				</REAL-SparseArray>
			</VectorInstance>
			<VectorInstance id="412">
				<REAL-SparseArray n="3">
					<Indices> 1 2 3</Indices>
					<REAL-Entries> -0.0573711165440582 -0.685166165416257 -0.898520953900157</REAL-Entries>
				</REAL-SparseArray>
			</VectorInstance>
			<VectorInstance id="413">
				<REAL-SparseArray n="3">
					<Indices> 1 2 3</Indices>
					<REAL-Entries> -0.297324174559437 -0.458251344820826 -0.898520953900157</REAL-Entries>
				</REAL-SparseArray>
			</VectorInstance>
			<VectorInstance id="414">
				<REAL-SparseArray n="3">
					<Indices> 1 2 3</Indices>
					<REAL-Entries> 0.76913386106447 0.272649534532092 0.067916515237068</REAL-Entries>
				</REAL-SparseArray>
			</VectorInstance>
			<VectorInstance id="415">
				<REAL-SparseArray n="3">
					<Indices> 1 2 3</Indices>
					<REAL-Entries> -0.699912083007462 -0.477383810055907 -0.125370978590377</REAL-Entries>
				</REAL-SparseArray>
			</VectorInstance>
			<VectorInstance id="416">
				<REAL-SparseArray n="3">
					<Indices> 1 2 3</Indices>
					<REAL-Entries> -0.430631429012426 0.0350764460525369 0.841066490546848</REAL-Entries>
				</REAL-SparseArray>
			</VectorInstance>
			<VectorInstance id="417">
				<REAL-SparseArray n="3">
					<Indices> 1 2 3</Indices>
					<REAL-Entries> 0.902441115517458 -0.0283195416219738 1.42092897202918</REAL-Entries>
				</REAL-SparseArray>
			</VectorInstance>
			<VectorInstance id="418">
				<REAL-SparseArray n="3">
					<Indices> 1 2 3</Indices>
					<REAL-Entries> 1.64896174045419 0.473672671564276 2.81259892758677</REAL-Entries>
				</REAL-SparseArray>
			</VectorInstance>
			<VectorInstance id="419">
				<REAL-SparseArray n="3">
					<Indices> 1 2 3</Indices>
					<REAL-Entries> -1.01718334860557 -0.864200461705232 -0.898520953900157</REAL-Entries>
				</REAL-SparseArray>
			</VectorInstance>
			<VectorInstance id="420">
				<REAL-SparseArray n="3">
					<Indices> 1 2 3</Indices>
					<REAL-Entries> -0.430631429012426 -0.575728299797363 -1.28509594155505</REAL-Entries>
				</REAL-SparseArray>
			</VectorInstance>
			<VectorInstance id="421">
				<REAL-SparseArray n="3">
					<Indices> 1 2 3</Indices>
					<REAL-Entries> 1.64896174045419 -0.0539955492071843 0.454491502891958</REAL-Entries>
				</REAL-SparseArray>
			</VectorInstance>
			<VectorInstance id="422">
				<REAL-SparseArray n="3">
					<Indices> 1 2 3</Indices>
					<REAL-Entries> -0.483954330793621 -2.64086563395822 -2.44482090451972</REAL-Entries>
				</REAL-SparseArray>
			</VectorInstance>
			<VectorInstance id="423">
				<REAL-SparseArray n="3">
					<Indices> 1 2 3</Indices>
					<REAL-Entries> -0.37730852723123 -0.43539777959992 0.067916515237068</REAL-Entries>
				</REAL-SparseArray>
			</VectorInstance>
			<VectorInstance id="424">
				<REAL-SparseArray n="3">
					<Indices> 1 2 3</Indices>
					<REAL-Entries> 0.502519352158493 -0.105304853168571 0.183889011533528</REAL-Entries>
				</REAL-SparseArray>
			</VectorInstance>
			<VectorInstance id="425">
				<REAL-SparseArray n="3">
					<Indices> 1 2 3</Indices>
					<REAL-Entries> -0.483954330793621 -1.31303372914882 -1.47838343538249</REAL-Entries>
				</REAL-SparseArray>
			</VectorInstance>
			<VectorInstance id="426">
				<REAL-SparseArray n="3">
					<Indices> 1 2 3</Indices>
					<REAL-Entries> -0.483954330793621 -1.34095345755601 -1.0918084477276</REAL-Entries>
				</REAL-SparseArray>
			</VectorInstance>
			<VectorInstance id="427">
				<REAL-SparseArray n="3">
					<Indices> 1 2 3</Indices>
					<REAL-Entries> 0.662488057502079 0.455697021071977 -0.125370978590377</REAL-Entries>
				</REAL-SparseArray>
			</VectorInstance>
			<VectorInstance id="428">
				<REAL-SparseArray n="3">
					<Indices> 1 2 3</Indices>
					<REAL-Entries> 0.87577966462686 0.632618483705177 0.454491502891958</REAL-Entries>
				</REAL-SparseArray>
			</VectorInstance>
			<VectorInstance id="429">
				<REAL-SparseArray n="3">
					<Indices> 1 2 3</Indices>
					<REAL-Entries> -0.350647076340633 -0.737684198015616 -0.705233460072712</REAL-Entries>
				</REAL-SparseArray>
			</VectorInstance>
			<VectorInstance id="430">
				<REAL-SparseArray n="3">
					<Indices> 1 2 3</Indices>
					<REAL-Entries> -0.350647076340633 0.279847262660479 -0.125370978590377</REAL-Entries>
				</REAL-SparseArray>
			</VectorInstance>
			<VectorInstance id="431">
				<REAL-SparseArray n="3">
					<Indices> 1 2 3</Indices>
					<REAL-Entries> -1.28379785751155 -1.1824533916473 -0.511945966245267</REAL-Entries>
				</REAL-SparseArray>
			</VectorInstance>
			<VectorInstance id="432">
				<REAL-SparseArray n="3">
					<Indices> 1 2 3</Indices>
					<REAL-Entries> -1.28379785751155 -0.251606924059362 -0.125370978590377</REAL-Entries>
				</REAL-SparseArray>
			</VectorInstance>
			<VectorInstance id="433">
				<REAL-SparseArray n="3">
					<Indices> 1 2 3</Indices>
					<REAL-Entries> -0.483954330793621 -0.200573674739847 0.261204009064512</REAL-Entries>
				</REAL-SparseArray>
			</VectorInstance>
			<VectorInstance id="434">
